digraph Tree {
node [shape=box] ;
0 [label="X[6] <= 44.5\nentropy = 0.336\nsamples = 199478\nvalue = [187096, 12382]"] ;
1 [label="X[403] <= 0.5\nentropy = 0.086\nsamples = 122091\nvalue = [120777, 1314]"] ;
0 -> 1 [labeldistance=2.5, labelangle=45, headlabel="True"] ;
2 [label="X[8] <= 5826.5\nentropy = 0.179\nsamples = 47523\nvalue = [46243, 1280]"] ;
1 -> 2 ;
3 [label="X[199] <= 149.5\nentropy = 0.154\nsamples = 46939\nvalue = [45897, 1042]"] ;
2 -> 3 ;
4 [label="X[195] <= 0.5\nentropy = 0.109\nsamples = 41301\nvalue = [40703, 598]"] ;
3 -> 4 ;
5 [label="X[6] <= 21.5\nentropy = 0.062\nsamples = 24112\nvalue = [23937, 175]"] ;
4 -> 5 ;
6 [label="X[2] <= 42.5\nentropy = 0.035\nsamples = 16122\nvalue = [16063, 59]"] ;
5 -> 6 ;
7 [label="X[0] <= 41.5\nentropy = 0.031\nsamples = 15906\nvalue = [15855, 51]"] ;
6 -> 7 ;
8 [label="X[188] <= 0.5\nentropy = 0.014\nsamples = 8041\nvalue = [8031, 10]"] ;
7 -> 8 ;
9 [label="X[199] <= 122.5\nentropy = 0.01\nsamples = 7742\nvalue = [7735, 7]"] ;
8 -> 9 ;
10 [label="entropy = 0.009\nsamples = 7728\nvalue = [7722, 6]"] ;
9 -> 10 ;
11 [label="entropy = 0.371\nsamples = 14\nvalue = [13, 1]"] ;
9 -> 11 ;
12 [label="X[216] <= 0.5\nentropy = 0.081\nsamples = 299\nvalue = [296, 3]"] ;
8 -> 12 ;
13 [label="entropy = 0.0\nsamples = 218\nvalue = [218, 0]"] ;
12 -> 13 ;
14 [label="entropy = 0.229\nsamples = 81\nvalue = [78, 3]"] ;
12 -> 14 ;
15 [label="X[347] <= 0.5\nentropy = 0.047\nsamples = 7865\nvalue = [7824, 41]"] ;
7 -> 15 ;
16 [label="X[209] <= 0.5\nentropy = 0.033\nsamples = 6947\nvalue = [6923, 24]"] ;
15 -> 16 ;
17 [label="entropy = 0.026\nsamples = 6436\nvalue = [6419, 17]"] ;
16 -> 17 ;
18 [label="entropy = 0.104\nsamples = 511\nvalue = [504, 7]"] ;
16 -> 18 ;
19 [label="X[288] <= 0.5\nentropy = 0.133\nsamples = 918\nvalue = [901, 17]"] ;
15 -> 19 ;
20 [label="entropy = 0.0\nsamples = 220\nvalue = [220, 0]"] ;
19 -> 20 ;
21 [label="entropy = 0.165\nsamples = 698\nvalue = [681, 17]"] ;
19 -> 21 ;
22 [label="X[243] <= 1603.145\nentropy = 0.229\nsamples = 216\nvalue = [208, 8]"] ;
6 -> 22 ;
23 [label="X[6] <= 7.0\nentropy = 0.36\nsamples = 117\nvalue = [109, 8]"] ;
22 -> 23 ;
24 [label="entropy = 0.0\nsamples = 50\nvalue = [50, 0]"] ;
23 -> 24 ;
25 [label="X[401] <= 0.5\nentropy = 0.528\nsamples = 67\nvalue = [59, 8]"] ;
23 -> 25 ;
26 [label="entropy = 0.154\nsamples = 45\nvalue = [44, 1]"] ;
25 -> 26 ;
27 [label="entropy = 0.902\nsamples = 22\nvalue = [15, 7]"] ;
25 -> 27 ;
28 [label="entropy = 0.0\nsamples = 99\nvalue = [99, 0]"] ;
22 -> 28 ;
29 [label="X[2] <= 18.5\nentropy = 0.109\nsamples = 7990\nvalue = [7874, 116]"] ;
5 -> 29 ;
30 [label="X[0] <= 21.5\nentropy = 0.192\nsamples = 2644\nvalue = [2566, 78]"] ;
29 -> 30 ;
31 [label="entropy = 0.0\nsamples = 444\nvalue = [444, 0]"] ;
30 -> 31 ;
32 [label="X[9] <= 2218.0\nentropy = 0.221\nsamples = 2200\nvalue = [2122, 78]"] ;
30 -> 32 ;
33 [label="X[0] <= 38.5\nentropy = 0.213\nsamples = 2195\nvalue = [2121, 74]"] ;
32 -> 33 ;
34 [label="entropy = 0.147\nsamples = 1236\nvalue = [1210, 26]"] ;
33 -> 34 ;
35 [label="entropy = 0.287\nsamples = 959\nvalue = [911, 48]"] ;
33 -> 35 ;
36 [label="X[289] <= 0.5\nentropy = 0.722\nsamples = 5\nvalue = [1, 4]"] ;
32 -> 36 ;
37 [label="entropy = 0.0\nsamples = 4\nvalue = [0, 4]"] ;
36 -> 37 ;
38 [label="entropy = 0.0\nsamples = 1\nvalue = [1, 0]"] ;
36 -> 38 ;
39 [label="X[347] <= 0.5\nentropy = 0.061\nsamples = 5346\nvalue = [5308, 38]"] ;
29 -> 39 ;
40 [label="X[109] <= 0.5\nentropy = 0.03\nsamples = 3231\nvalue = [3221, 10]"] ;
39 -> 40 ;
41 [label="X[362] <= 0.5\nentropy = 0.028\nsamples = 3228\nvalue = [3219, 9]"] ;
40 -> 41 ;
42 [label="entropy = 0.025\nsamples = 3218\nvalue = [3210, 8]"] ;
41 -> 42 ;
43 [label="entropy = 0.469\nsamples = 10\nvalue = [9, 1]"] ;
41 -> 43 ;
44 [label="X[225] <= 0.5\nentropy = 0.918\nsamples = 3\nvalue = [2, 1]"] ;
40 -> 44 ;
45 [label="entropy = 0.0\nsamples = 2\nvalue = [2, 0]"] ;
44 -> 45 ;
46 [label="entropy = 0.0\nsamples = 1\nvalue = [0, 1]"] ;
44 -> 46 ;
47 [label="X[0] <= 19.5\nentropy = 0.102\nsamples = 2115\nvalue = [2087, 28]"] ;
39 -> 47 ;
48 [label="entropy = 0.0\nsamples = 519\nvalue = [519, 0]"] ;
47 -> 48 ;
49 [label="X[9] <= 2231.5\nentropy = 0.127\nsamples = 1596\nvalue = [1568, 28]"] ;
47 -> 49 ;
50 [label="entropy = 0.12\nsamples = 1593\nvalue = [1567, 26]"] ;
49 -> 50 ;
51 [label="entropy = 0.918\nsamples = 3\nvalue = [1, 2]"] ;
49 -> 51 ;
52 [label="X[214] <= 0.5\nentropy = 0.167\nsamples = 17189\nvalue = [16766, 423]"] ;
4 -> 52 ;
53 [label="X[9] <= 1881.5\nentropy = 0.148\nsamples = 16522\nvalue = [16171, 351]"] ;
52 -> 53 ;
54 [label="X[281] <= 0.5\nentropy = 0.137\nsamples = 16237\nvalue = [15924, 313]"] ;
53 -> 54 ;
55 [label="X[209] <= 0.5\nentropy = 0.126\nsamples = 15716\nvalue = [15445, 271]"] ;
54 -> 55 ;
56 [label="X[6] <= 16.5\nentropy = 0.111\nsamples = 14353\nvalue = [14142, 211]"] ;
55 -> 56 ;
57 [label="entropy = 0.088\nsamples = 9624\nvalue = [9517, 107]"] ;
56 -> 57 ;
58 [label="entropy = 0.152\nsamples = 4729\nvalue = [4625, 104]"] ;
56 -> 58 ;
59 [label="X[326] <= 0.5\nentropy = 0.26\nsamples = 1363\nvalue = [1303, 60]"] ;
55 -> 59 ;
60 [label="entropy = 0.279\nsamples = 1246\nvalue = [1186, 60]"] ;
59 -> 60 ;
61 [label="entropy = 0.0\nsamples = 117\nvalue = [117, 0]"] ;
59 -> 61 ;
62 [label="X[0] <= 30.5\nentropy = 0.404\nsamples = 521\nvalue = [479, 42]"] ;
54 -> 62 ;
63 [label="X[60] <= 0.5\nentropy = 0.059\nsamples = 145\nvalue = [144, 1]"] ;
62 -> 63 ;
64 [label="entropy = 0.0\nsamples = 143\nvalue = [143, 0]"] ;
63 -> 64 ;
65 [label="entropy = 1.0\nsamples = 2\nvalue = [1, 1]"] ;
63 -> 65 ;
66 [label="X[243] <= 859.215\nentropy = 0.497\nsamples = 376\nvalue = [335, 41]"] ;
62 -> 66 ;
67 [label="entropy = 0.0\nsamples = 58\nvalue = [58, 0]"] ;
66 -> 67 ;
68 [label="entropy = 0.554\nsamples = 318\nvalue = [277, 41]"] ;
66 -> 68 ;
69 [label="X[6] <= 11.5\nentropy = 0.567\nsamples = 285\nvalue = [247, 38]"] ;
53 -> 69 ;
70 [label="X[324] <= 0.5\nentropy = 0.236\nsamples = 181\nvalue = [174, 7]"] ;
69 -> 70 ;
71 [label="X[47] <= 0.5\nentropy = 0.186\nsamples = 176\nvalue = [171, 5]"] ;
70 -> 71 ;
72 [label="entropy = 0.157\nsamples = 175\nvalue = [171, 4]"] ;
71 -> 72 ;
73 [label="entropy = 0.0\nsamples = 1\nvalue = [0, 1]"] ;
71 -> 73 ;
74 [label="X[345] <= 0.5\nentropy = 0.971\nsamples = 5\nvalue = [3, 2]"] ;
70 -> 74 ;
75 [label="entropy = 0.0\nsamples = 2\nvalue = [0, 2]"] ;
74 -> 75 ;
76 [label="entropy = 0.0\nsamples = 3\nvalue = [3, 0]"] ;
74 -> 76 ;
77 [label="X[346] <= 0.5\nentropy = 0.879\nsamples = 104\nvalue = [73, 31]"] ;
69 -> 77 ;
78 [label="X[9] <= 1978.5\nentropy = 0.959\nsamples = 76\nvalue = [47, 29]"] ;
77 -> 78 ;
79 [label="entropy = 0.971\nsamples = 30\nvalue = [12, 18]"] ;
78 -> 79 ;
80 [label="entropy = 0.794\nsamples = 46\nvalue = [35, 11]"] ;
78 -> 80 ;
81 [label="X[333] <= 0.5\nentropy = 0.371\nsamples = 28\nvalue = [26, 2]"] ;
77 -> 81 ;
82 [label="entropy = 1.0\nsamples = 4\nvalue = [2, 2]"] ;
81 -> 82 ;
83 [label="entropy = 0.0\nsamples = 24\nvalue = [24, 0]"] ;
81 -> 83 ;
84 [label="X[6] <= 25.5\nentropy = 0.494\nsamples = 667\nvalue = [595, 72]"] ;
52 -> 84 ;
85 [label="X[400] <= 0.5\nentropy = 0.35\nsamples = 396\nvalue = [370, 26]"] ;
84 -> 85 ;
86 [label="X[243] <= 3117.27\nentropy = 0.266\nsamples = 309\nvalue = [295, 14]"] ;
85 -> 86 ;
87 [label="X[243] <= 301.23\nentropy = 0.206\nsamples = 279\nvalue = [270, 9]"] ;
86 -> 87 ;
88 [label="entropy = 0.971\nsamples = 5\nvalue = [3, 2]"] ;
87 -> 88 ;
89 [label="entropy = 0.172\nsamples = 274\nvalue = [267, 7]"] ;
87 -> 89 ;
90 [label="X[3] <= 2.0\nentropy = 0.65\nsamples = 30\nvalue = [25, 5]"] ;
86 -> 90 ;
91 [label="entropy = 0.811\nsamples = 20\nvalue = [15, 5]"] ;
90 -> 91 ;
92 [label="entropy = 0.0\nsamples = 10\nvalue = [10, 0]"] ;
90 -> 92 ;
93 [label="X[46] <= 0.5\nentropy = 0.579\nsamples = 87\nvalue = [75, 12]"] ;
85 -> 93 ;
94 [label="X[50] <= 0.5\nentropy = 0.527\nsamples = 84\nvalue = [74, 10]"] ;
93 -> 94 ;
95 [label="entropy = 0.495\nsamples = 83\nvalue = [74, 9]"] ;
94 -> 95 ;
96 [label="entropy = 0.0\nsamples = 1\nvalue = [0, 1]"] ;
94 -> 96 ;
97 [label="X[8] <= 704.5\nentropy = 0.918\nsamples = 3\nvalue = [1, 2]"] ;
93 -> 97 ;
98 [label="entropy = 0.0\nsamples = 2\nvalue = [0, 2]"] ;
97 -> 98 ;
99 [label="entropy = 0.0\nsamples = 1\nvalue = [1, 0]"] ;
97 -> 99 ;
100 [label="X[0] <= 32.5\nentropy = 0.657\nsamples = 271\nvalue = [225, 46]"] ;
84 -> 100 ;
101 [label="X[243] <= 3409.875\nentropy = 0.149\nsamples = 47\nvalue = [46, 1]"] ;
100 -> 101 ;
102 [label="entropy = 0.0\nsamples = 46\nvalue = [46, 0]"] ;
101 -> 102 ;
103 [label="entropy = 0.0\nsamples = 1\nvalue = [0, 1]"] ;
101 -> 103 ;
104 [label="X[0] <= 66.5\nentropy = 0.724\nsamples = 224\nvalue = [179, 45]"] ;
100 -> 104 ;
105 [label="X[2] <= 2.5\nentropy = 0.761\nsamples = 204\nvalue = [159, 45]"] ;
104 -> 105 ;
106 [label="entropy = 0.99\nsamples = 34\nvalue = [19, 15]"] ;
105 -> 106 ;
107 [label="entropy = 0.672\nsamples = 170\nvalue = [140, 30]"] ;
105 -> 107 ;
108 [label="entropy = 0.0\nsamples = 20\nvalue = [20, 0]"] ;
104 -> 108 ;
109 [label="X[199] <= 12825.0\nentropy = 0.398\nsamples = 5638\nvalue = [5194, 444]"] ;
3 -> 109 ;
110 [label="X[6] <= 25.5\nentropy = 0.33\nsamples = 5384\nvalue = [5058, 326]"] ;
109 -> 110 ;
111 [label="X[347] <= 0.5\nentropy = 0.254\nsamples = 4611\nvalue = [4415, 196]"] ;
110 -> 111 ;
112 [label="X[199] <= 9155.0\nentropy = 0.156\nsamples = 2883\nvalue = [2818, 65]"] ;
111 -> 112 ;
113 [label="X[212] <= 0.5\nentropy = 0.134\nsamples = 2741\nvalue = [2690, 51]"] ;
112 -> 113 ;
114 [label="X[0] <= 51.5\nentropy = 0.171\nsamples = 1733\nvalue = [1689, 44]"] ;
113 -> 114 ;
115 [label="entropy = 0.036\nsamples = 529\nvalue = [527, 2]"] ;
114 -> 115 ;
116 [label="entropy = 0.218\nsamples = 1204\nvalue = [1162, 42]"] ;
114 -> 116 ;
117 [label="X[180] <= 0.5\nentropy = 0.06\nsamples = 1008\nvalue = [1001, 7]"] ;
113 -> 117 ;
118 [label="entropy = 0.053\nsamples = 1006\nvalue = [1000, 6]"] ;
117 -> 118 ;
119 [label="entropy = 1.0\nsamples = 2\nvalue = [1, 1]"] ;
117 -> 119 ;
120 [label="X[271] <= 0.5\nentropy = 0.465\nsamples = 142\nvalue = [128, 14]"] ;
112 -> 120 ;
121 [label="X[199] <= 11352.0\nentropy = 0.422\nsamples = 140\nvalue = [128, 12]"] ;
120 -> 121 ;
122 [label="entropy = 0.519\nsamples = 103\nvalue = [91, 12]"] ;
121 -> 122 ;
123 [label="entropy = 0.0\nsamples = 37\nvalue = [37, 0]"] ;
121 -> 123 ;
124 [label="entropy = 0.0\nsamples = 2\nvalue = [0, 2]"] ;
120 -> 124 ;
125 [label="X[199] <= 4071.0\nentropy = 0.387\nsamples = 1728\nvalue = [1597, 131]"] ;
111 -> 125 ;
126 [label="X[212] <= 0.5\nentropy = 0.303\nsamples = 1424\nvalue = [1347, 77]"] ;
125 -> 126 ;
127 [label="X[9] <= 2226.0\nentropy = 0.361\nsamples = 989\nvalue = [921, 68]"] ;
126 -> 127 ;
128 [label="entropy = 0.341\nsamples = 977\nvalue = [915, 62]"] ;
127 -> 128 ;
129 [label="entropy = 1.0\nsamples = 12\nvalue = [6, 6]"] ;
127 -> 129 ;
130 [label="X[242] <= 0.5\nentropy = 0.145\nsamples = 435\nvalue = [426, 9]"] ;
126 -> 130 ;
131 [label="entropy = 0.133\nsamples = 434\nvalue = [426, 8]"] ;
130 -> 131 ;
132 [label="entropy = 0.0\nsamples = 1\nvalue = [0, 1]"] ;
130 -> 132 ;
133 [label="X[199] <= 10897.0\nentropy = 0.675\nsamples = 304\nvalue = [250, 54]"] ;
125 -> 133 ;
134 [label="X[212] <= 0.5\nentropy = 0.612\nsamples = 272\nvalue = [231, 41]"] ;
133 -> 134 ;
135 [label="entropy = 0.722\nsamples = 195\nvalue = [156, 39]"] ;
134 -> 135 ;
136 [label="entropy = 0.174\nsamples = 77\nvalue = [75, 2]"] ;
134 -> 136 ;
137 [label="X[243] <= 1322.785\nentropy = 0.974\nsamples = 32\nvalue = [19, 13]"] ;
133 -> 137 ;
138 [label="entropy = 0.0\nsamples = 7\nvalue = [7, 0]"] ;
137 -> 138 ;
139 [label="entropy = 0.999\nsamples = 25\nvalue = [12, 13]"] ;
137 -> 139 ;
140 [label="X[195] <= 0.5\nentropy = 0.654\nsamples = 773\nvalue = [643, 130]"] ;
110 -> 140 ;
141 [label="X[0] <= 41.5\nentropy = 0.44\nsamples = 417\nvalue = [379, 38]"] ;
140 -> 141 ;
142 [label="X[243] <= 4730.935\nentropy = 0.159\nsamples = 172\nvalue = [168, 4]"] ;
141 -> 142 ;
143 [label="X[337] <= 0.5\nentropy = 0.127\nsamples = 171\nvalue = [168, 3]"] ;
142 -> 143 ;
144 [label="entropy = 0.811\nsamples = 8\nvalue = [6, 2]"] ;
143 -> 144 ;
145 [label="entropy = 0.054\nsamples = 163\nvalue = [162, 1]"] ;
143 -> 145 ;
146 [label="entropy = 0.0\nsamples = 1\nvalue = [0, 1]"] ;
142 -> 146 ;
147 [label="X[2] <= 17.5\nentropy = 0.581\nsamples = 245\nvalue = [211, 34]"] ;
141 -> 147 ;
148 [label="X[197] <= 0.5\nentropy = 0.685\nsamples = 170\nvalue = [139, 31]"] ;
147 -> 148 ;
149 [label="entropy = 0.664\nsamples = 168\nvalue = [139, 29]"] ;
148 -> 149 ;
150 [label="entropy = 0.0\nsamples = 2\nvalue = [0, 2]"] ;
148 -> 150 ;
151 [label="X[0] <= 64.5\nentropy = 0.242\nsamples = 75\nvalue = [72, 3]"] ;
147 -> 151 ;
152 [label="entropy = 0.0\nsamples = 68\nvalue = [68, 0]"] ;
151 -> 152 ;
153 [label="entropy = 0.985\nsamples = 7\nvalue = [4, 3]"] ;
151 -> 153 ;
154 [label="X[2] <= 11.5\nentropy = 0.824\nsamples = 356\nvalue = [264, 92]"] ;
140 -> 154 ;
155 [label="X[0] <= 32.5\nentropy = 0.952\nsamples = 194\nvalue = [122, 72]"] ;
154 -> 155 ;
156 [label="entropy = 0.0\nsamples = 22\nvalue = [22, 0]"] ;
155 -> 156 ;
157 [label="X[3] <= 5.5\nentropy = 0.981\nsamples = 172\nvalue = [100, 72]"] ;
155 -> 157 ;
158 [label="entropy = 0.896\nsamples = 96\nvalue = [66, 30]"] ;
157 -> 158 ;
159 [label="entropy = 0.992\nsamples = 76\nvalue = [34, 42]"] ;
157 -> 159 ;
160 [label="X[9] <= 1894.5\nentropy = 0.539\nsamples = 162\nvalue = [142, 20]"] ;
154 -> 160 ;
161 [label="X[347] <= 0.5\nentropy = 0.459\nsamples = 155\nvalue = [140, 15]"] ;
160 -> 161 ;
162 [label="entropy = 0.0\nsamples = 56\nvalue = [56, 0]"] ;
161 -> 162 ;
163 [label="entropy = 0.614\nsamples = 99\nvalue = [84, 15]"] ;
161 -> 163 ;
164 [label="X[199] <= 2050.0\nentropy = 0.863\nsamples = 7\nvalue = [2, 5]"] ;
160 -> 164 ;
165 [label="entropy = 0.0\nsamples = 5\nvalue = [0, 5]"] ;
164 -> 165 ;
166 [label="entropy = 0.0\nsamples = 2\nvalue = [2, 0]"] ;
164 -> 166 ;
167 [label="X[199] <= 30631.0\nentropy = 0.996\nsamples = 254\nvalue = [136, 118]"] ;
109 -> 167 ;
168 [label="X[191] <= 0.5\nentropy = 0.942\nsamples = 209\nvalue = [134, 75]"] ;
167 -> 168 ;
169 [label="X[347] <= 0.5\nentropy = 0.957\nsamples = 198\nvalue = [123, 75]"] ;
168 -> 169 ;
170 [label="X[199] <= 28625.0\nentropy = 0.858\nsamples = 110\nvalue = [79, 31]"] ;
169 -> 170 ;
171 [label="X[281] <= 0.5\nentropy = 0.744\nsamples = 90\nvalue = [71, 19]"] ;
170 -> 171 ;
172 [label="entropy = 0.668\nsamples = 86\nvalue = [71, 15]"] ;
171 -> 172 ;
173 [label="entropy = 0.0\nsamples = 4\nvalue = [0, 4]"] ;
171 -> 173 ;
174 [label="X[0] <= 64.5\nentropy = 0.971\nsamples = 20\nvalue = [8, 12]"] ;
170 -> 174 ;
175 [label="entropy = 0.544\nsamples = 8\nvalue = [7, 1]"] ;
174 -> 175 ;
176 [label="entropy = 0.414\nsamples = 12\nvalue = [1, 11]"] ;
174 -> 176 ;
177 [label="X[243] <= 2005.01\nentropy = 1.0\nsamples = 88\nvalue = [44, 44]"] ;
169 -> 177 ;
178 [label="X[0] <= 83.5\nentropy = 0.98\nsamples = 67\nvalue = [28, 39]"] ;
177 -> 178 ;
179 [label="entropy = 0.939\nsamples = 59\nvalue = [21, 38]"] ;
178 -> 179 ;
180 [label="entropy = 0.544\nsamples = 8\nvalue = [7, 1]"] ;
178 -> 180 ;
181 [label="X[1] <= 35.0\nentropy = 0.792\nsamples = 21\nvalue = [16, 5]"] ;
177 -> 181 ;
182 [label="entropy = 0.629\nsamples = 19\nvalue = [16, 3]"] ;
181 -> 182 ;
183 [label="entropy = 0.0\nsamples = 2\nvalue = [0, 2]"] ;
181 -> 183 ;
184 [label="entropy = 0.0\nsamples = 11\nvalue = [11, 0]"] ;
168 -> 184 ;
185 [label="X[215] <= 0.5\nentropy = 0.262\nsamples = 45\nvalue = [2, 43]"] ;
167 -> 185 ;
186 [label="X[291] <= 0.5\nentropy = 0.156\nsamples = 44\nvalue = [1, 43]"] ;
185 -> 186 ;
187 [label="entropy = 0.0\nsamples = 43\nvalue = [0, 43]"] ;
186 -> 187 ;
188 [label="entropy = 0.0\nsamples = 1\nvalue = [1, 0]"] ;
186 -> 188 ;
189 [label="entropy = 0.0\nsamples = 1\nvalue = [1, 0]"] ;
185 -> 189 ;
190 [label="X[8] <= 10041.0\nentropy = 0.975\nsamples = 584\nvalue = [346, 238]"] ;
2 -> 190 ;
191 [label="X[8] <= 6228.5\nentropy = 0.773\nsamples = 308\nvalue = [238, 70]"] ;
190 -> 191 ;
192 [label="X[209] <= 0.5\nentropy = 0.439\nsamples = 11\nvalue = [1, 10]"] ;
191 -> 192 ;
193 [label="entropy = 0.0\nsamples = 10\nvalue = [0, 10]"] ;
192 -> 193 ;
194 [label="entropy = 0.0\nsamples = 1\nvalue = [1, 0]"] ;
192 -> 194 ;
195 [label="X[346] <= 0.5\nentropy = 0.726\nsamples = 297\nvalue = [237, 60]"] ;
191 -> 195 ;
196 [label="X[402] <= 0.5\nentropy = 0.829\nsamples = 191\nvalue = [141, 50]"] ;
195 -> 196 ;
197 [label="X[251] <= 0.5\nentropy = 0.879\nsamples = 161\nvalue = [113, 48]"] ;
196 -> 197 ;
198 [label="X[8] <= 8296.0\nentropy = 0.907\nsamples = 149\nvalue = [101, 48]"] ;
197 -> 198 ;
199 [label="X[243] <= 298.05\nentropy = 0.842\nsamples = 122\nvalue = [89, 33]"] ;
198 -> 199 ;
200 [label="entropy = 0.722\nsamples = 5\nvalue = [1, 4]"] ;
199 -> 200 ;
201 [label="entropy = 0.808\nsamples = 117\nvalue = [88, 29]"] ;
199 -> 201 ;
202 [label="X[24] <= 0.5\nentropy = 0.991\nsamples = 27\nvalue = [12, 15]"] ;
198 -> 202 ;
203 [label="entropy = 0.999\nsamples = 23\nvalue = [12, 11]"] ;
202 -> 203 ;
204 [label="entropy = 0.0\nsamples = 4\nvalue = [0, 4]"] ;
202 -> 204 ;
205 [label="entropy = 0.0\nsamples = 12\nvalue = [12, 0]"] ;
197 -> 205 ;
206 [label="X[199] <= 6400.0\nentropy = 0.353\nsamples = 30\nvalue = [28, 2]"] ;
196 -> 206 ;
207 [label="entropy = 0.0\nsamples = 28\nvalue = [28, 0]"] ;
206 -> 207 ;
208 [label="entropy = 0.0\nsamples = 2\nvalue = [0, 2]"] ;
206 -> 208 ;
209 [label="X[0] <= 26.0\nentropy = 0.451\nsamples = 106\nvalue = [96, 10]"] ;
195 -> 209 ;
210 [label="entropy = 0.0\nsamples = 2\nvalue = [0, 2]"] ;
209 -> 210 ;
211 [label="X[0] <= 55.5\nentropy = 0.391\nsamples = 104\nvalue = [96, 8]"] ;
209 -> 211 ;
212 [label="entropy = 0.0\nsamples = 54\nvalue = [54, 0]"] ;
211 -> 212 ;
213 [label="X[3] <= 0.5\nentropy = 0.634\nsamples = 50\nvalue = [42, 8]"] ;
211 -> 213 ;
214 [label="X[199] <= 85.5\nentropy = 0.496\nsamples = 46\nvalue = [41, 5]"] ;
213 -> 214 ;
215 [label="entropy = 0.0\nsamples = 24\nvalue = [24, 0]"] ;
214 -> 215 ;
216 [label="entropy = 0.773\nsamples = 22\nvalue = [17, 5]"] ;
214 -> 216 ;
217 [label="X[2] <= 6.0\nentropy = 0.811\nsamples = 4\nvalue = [1, 3]"] ;
213 -> 217 ;
218 [label="entropy = 0.0\nsamples = 3\nvalue = [0, 3]"] ;
217 -> 218 ;
219 [label="entropy = 0.0\nsamples = 1\nvalue = [1, 0]"] ;
217 -> 219 ;
220 [label="X[175] <= 0.5\nentropy = 0.966\nsamples = 276\nvalue = [108, 168]"] ;
190 -> 220 ;
221 [label="X[347] <= 0.5\nentropy = 0.999\nsamples = 216\nvalue = [105, 111]"] ;
220 -> 221 ;
222 [label="X[292] <= 0.5\nentropy = 0.824\nsamples = 89\nvalue = [66, 23]"] ;
221 -> 222 ;
223 [label="X[199] <= 42499.5\nentropy = 0.731\nsamples = 83\nvalue = [66, 17]"] ;
222 -> 223 ;
224 [label="X[6] <= 38.0\nentropy = 0.645\nsamples = 79\nvalue = [66, 13]"] ;
223 -> 224 ;
225 [label="X[0] <= 61.5\nentropy = 0.435\nsamples = 67\nvalue = [61, 6]"] ;
224 -> 225 ;
226 [label="entropy = 0.137\nsamples = 52\nvalue = [51, 1]"] ;
225 -> 226 ;
227 [label="entropy = 0.918\nsamples = 15\nvalue = [10, 5]"] ;
225 -> 227 ;
228 [label="X[0] <= 51.5\nentropy = 0.98\nsamples = 12\nvalue = [5, 7]"] ;
224 -> 228 ;
229 [label="entropy = 0.954\nsamples = 8\nvalue = [5, 3]"] ;
228 -> 229 ;
230 [label="entropy = 0.0\nsamples = 4\nvalue = [0, 4]"] ;
228 -> 230 ;
231 [label="entropy = 0.0\nsamples = 4\nvalue = [0, 4]"] ;
223 -> 231 ;
232 [label="entropy = 0.0\nsamples = 6\nvalue = [0, 6]"] ;
222 -> 232 ;
233 [label="X[199] <= 1536.5\nentropy = 0.89\nsamples = 127\nvalue = [39, 88]"] ;
221 -> 233 ;
234 [label="X[6] <= 31.5\nentropy = 0.987\nsamples = 76\nvalue = [33, 43]"] ;
233 -> 234 ;
235 [label="X[8] <= 30961.5\nentropy = 0.998\nsamples = 59\nvalue = [31, 28]"] ;
234 -> 235 ;
236 [label="X[0] <= 73.5\nentropy = 0.996\nsamples = 52\nvalue = [24, 28]"] ;
235 -> 236 ;
237 [label="entropy = 0.989\nsamples = 41\nvalue = [23, 18]"] ;
236 -> 237 ;
238 [label="entropy = 0.439\nsamples = 11\nvalue = [1, 10]"] ;
236 -> 238 ;
239 [label="entropy = 0.0\nsamples = 7\nvalue = [7, 0]"] ;
235 -> 239 ;
240 [label="X[407] <= 0.5\nentropy = 0.523\nsamples = 17\nvalue = [2, 15]"] ;
234 -> 240 ;
241 [label="entropy = 0.0\nsamples = 2\nvalue = [2, 0]"] ;
240 -> 241 ;
242 [label="entropy = 0.0\nsamples = 15\nvalue = [0, 15]"] ;
240 -> 242 ;
243 [label="X[216] <= 0.5\nentropy = 0.523\nsamples = 51\nvalue = [6, 45]"] ;
233 -> 243 ;
244 [label="X[243] <= 1884.42\nentropy = 0.353\nsamples = 45\nvalue = [3, 42]"] ;
243 -> 244 ;
245 [label="entropy = 0.0\nsamples = 28\nvalue = [0, 28]"] ;
244 -> 245 ;
246 [label="X[283] <= 0.5\nentropy = 0.672\nsamples = 17\nvalue = [3, 14]"] ;
244 -> 246 ;
247 [label="entropy = 0.544\nsamples = 16\nvalue = [2, 14]"] ;
246 -> 247 ;
248 [label="entropy = 0.0\nsamples = 1\nvalue = [1, 0]"] ;
246 -> 248 ;
249 [label="X[243] <= 1810.015\nentropy = 1.0\nsamples = 6\nvalue = [3, 3]"] ;
243 -> 249 ;
250 [label="entropy = 0.0\nsamples = 2\nvalue = [2, 0]"] ;
249 -> 250 ;
251 [label="X[4] <= 1.0\nentropy = 0.811\nsamples = 4\nvalue = [1, 3]"] ;
249 -> 251 ;
252 [label="entropy = 0.0\nsamples = 3\nvalue = [0, 3]"] ;
251 -> 252 ;
253 [label="entropy = 0.0\nsamples = 1\nvalue = [1, 0]"] ;
251 -> 253 ;
254 [label="X[285] <= 0.5\nentropy = 0.286\nsamples = 60\nvalue = [3, 57]"] ;
220 -> 254 ;
255 [label="X[46] <= 0.5\nentropy = 0.214\nsamples = 59\nvalue = [2, 57]"] ;
254 -> 255 ;
256 [label="X[0] <= 86.0\nentropy = 0.126\nsamples = 58\nvalue = [1, 57]"] ;
255 -> 256 ;
257 [label="entropy = 0.0\nsamples = 54\nvalue = [0, 54]"] ;
256 -> 257 ;
258 [label="X[212] <= 0.5\nentropy = 0.811\nsamples = 4\nvalue = [1, 3]"] ;
256 -> 258 ;
259 [label="entropy = 0.0\nsamples = 3\nvalue = [0, 3]"] ;
258 -> 259 ;
260 [label="entropy = 0.0\nsamples = 1\nvalue = [1, 0]"] ;
258 -> 260 ;
261 [label="entropy = 0.0\nsamples = 1\nvalue = [1, 0]"] ;
255 -> 261 ;
262 [label="entropy = 0.0\nsamples = 1\nvalue = [1, 0]"] ;
254 -> 262 ;
263 [label="X[0] <= 20.5\nentropy = 0.006\nsamples = 74568\nvalue = [74534, 34]"] ;
1 -> 263 ;
264 [label="entropy = 0.0\nsamples = 56602\nvalue = [56602, 0]"] ;
263 -> 264 ;
265 [label="X[209] <= 0.5\nentropy = 0.02\nsamples = 17966\nvalue = [17932, 34]"] ;
263 -> 265 ;
266 [label="X[222] <= 0.5\nentropy = 0.016\nsamples = 17180\nvalue = [17154, 26]"] ;
265 -> 266 ;
267 [label="X[211] <= 0.5\nentropy = 0.014\nsamples = 16858\nvalue = [16837, 21]"] ;
266 -> 267 ;
268 [label="X[199] <= 805.0\nentropy = 0.013\nsamples = 16818\nvalue = [16799, 19]"] ;
267 -> 268 ;
269 [label="X[152] <= 0.5\nentropy = 0.012\nsamples = 16811\nvalue = [16793, 18]"] ;
268 -> 269 ;
270 [label="X[110] <= 0.5\nentropy = 0.012\nsamples = 16799\nvalue = [16782, 17]"] ;
269 -> 270 ;
271 [label="X[233] <= 0.5\nentropy = 0.01\nsamples = 16339\nvalue = [16325, 14]"] ;
270 -> 271 ;
272 [label="entropy = 0.0\nsamples = 2923\nvalue = [2923, 0]"] ;
271 -> 272 ;
273 [label="entropy = 0.012\nsamples = 13416\nvalue = [13402, 14]"] ;
271 -> 273 ;
274 [label="X[0] <= 36.5\nentropy = 0.057\nsamples = 460\nvalue = [457, 3]"] ;
270 -> 274 ;
275 [label="entropy = 0.169\nsamples = 120\nvalue = [117, 3]"] ;
274 -> 275 ;
276 [label="entropy = 0.0\nsamples = 340\nvalue = [340, 0]"] ;
274 -> 276 ;
277 [label="X[243] <= 1403.75\nentropy = 0.414\nsamples = 12\nvalue = [11, 1]"] ;
269 -> 277 ;
278 [label="X[0] <= 75.5\nentropy = 1.0\nsamples = 2\nvalue = [1, 1]"] ;
277 -> 278 ;
279 [label="entropy = 0.0\nsamples = 1\nvalue = [0, 1]"] ;
278 -> 279 ;
280 [label="entropy = 0.0\nsamples = 1\nvalue = [1, 0]"] ;
278 -> 280 ;
281 [label="entropy = 0.0\nsamples = 10\nvalue = [10, 0]"] ;
277 -> 281 ;
282 [label="X[199] <= 840.0\nentropy = 0.592\nsamples = 7\nvalue = [6, 1]"] ;
268 -> 282 ;
283 [label="entropy = 0.0\nsamples = 1\nvalue = [0, 1]"] ;
282 -> 283 ;
284 [label="entropy = 0.0\nsamples = 6\nvalue = [6, 0]"] ;
282 -> 284 ;
285 [label="X[99] <= 0.5\nentropy = 0.286\nsamples = 40\nvalue = [38, 2]"] ;
267 -> 285 ;
286 [label="X[199] <= 50.0\nentropy = 0.172\nsamples = 39\nvalue = [38, 1]"] ;
285 -> 286 ;
287 [label="entropy = 0.0\nsamples = 37\nvalue = [37, 0]"] ;
286 -> 287 ;
288 [label="X[277] <= 0.5\nentropy = 1.0\nsamples = 2\nvalue = [1, 1]"] ;
286 -> 288 ;
289 [label="entropy = 0.0\nsamples = 1\nvalue = [1, 0]"] ;
288 -> 289 ;
290 [label="entropy = 0.0\nsamples = 1\nvalue = [0, 1]"] ;
288 -> 290 ;
291 [label="entropy = 0.0\nsamples = 1\nvalue = [0, 1]"] ;
285 -> 291 ;
292 [label="X[213] <= 0.5\nentropy = 0.116\nsamples = 322\nvalue = [317, 5]"] ;
266 -> 292 ;
293 [label="X[198] <= 0.5\nentropy = 0.097\nsamples = 320\nvalue = [316, 4]"] ;
292 -> 293 ;
294 [label="X[199] <= 181.5\nentropy = 0.058\nsamples = 300\nvalue = [298, 2]"] ;
293 -> 294 ;
295 [label="X[243] <= 587.77\nentropy = 0.033\nsamples = 296\nvalue = [295, 1]"] ;
294 -> 295 ;
296 [label="X[243] <= 546.515\nentropy = 0.235\nsamples = 26\nvalue = [25, 1]"] ;
295 -> 296 ;
297 [label="entropy = 0.0\nsamples = 25\nvalue = [25, 0]"] ;
296 -> 297 ;
298 [label="entropy = 0.0\nsamples = 1\nvalue = [0, 1]"] ;
296 -> 298 ;
299 [label="entropy = 0.0\nsamples = 270\nvalue = [270, 0]"] ;
295 -> 299 ;
300 [label="X[290] <= 0.5\nentropy = 0.811\nsamples = 4\nvalue = [3, 1]"] ;
294 -> 300 ;
301 [label="entropy = 0.0\nsamples = 3\nvalue = [3, 0]"] ;
300 -> 301 ;
302 [label="entropy = 0.0\nsamples = 1\nvalue = [0, 1]"] ;
300 -> 302 ;
303 [label="X[0] <= 41.0\nentropy = 0.469\nsamples = 20\nvalue = [18, 2]"] ;
293 -> 303 ;
304 [label="entropy = 0.0\nsamples = 1\nvalue = [0, 1]"] ;
303 -> 304 ;
305 [label="X[0] <= 70.0\nentropy = 0.297\nsamples = 19\nvalue = [18, 1]"] ;
303 -> 305 ;
306 [label="entropy = 0.0\nsamples = 15\nvalue = [15, 0]"] ;
305 -> 306 ;
307 [label="X[0] <= 73.0\nentropy = 0.811\nsamples = 4\nvalue = [3, 1]"] ;
305 -> 307 ;
308 [label="entropy = 0.0\nsamples = 1\nvalue = [0, 1]"] ;
307 -> 308 ;
309 [label="entropy = 0.0\nsamples = 3\nvalue = [3, 0]"] ;
307 -> 309 ;
310 [label="X[93] <= 0.5\nentropy = 1.0\nsamples = 2\nvalue = [1, 1]"] ;
292 -> 310 ;
311 [label="entropy = 0.0\nsamples = 1\nvalue = [0, 1]"] ;
310 -> 311 ;
312 [label="entropy = 0.0\nsamples = 1\nvalue = [1, 0]"] ;
310 -> 312 ;
313 [label="X[377] <= 0.5\nentropy = 0.082\nsamples = 786\nvalue = [778, 8]"] ;
265 -> 313 ;
314 [label="X[6] <= 8.5\nentropy = 0.074\nsamples = 784\nvalue = [777, 7]"] ;
313 -> 314 ;
315 [label="X[147] <= 0.5\nentropy = 0.057\nsamples = 755\nvalue = [750, 5]"] ;
314 -> 315 ;
316 [label="X[173] <= 0.5\nentropy = 0.048\nsamples = 747\nvalue = [743, 4]"] ;
315 -> 316 ;
317 [label="X[297] <= 0.5\nentropy = 0.019\nsamples = 573\nvalue = [572, 1]"] ;
316 -> 317 ;
318 [label="entropy = 0.0\nsamples = 564\nvalue = [564, 0]"] ;
317 -> 318 ;
319 [label="X[331] <= 0.5\nentropy = 0.503\nsamples = 9\nvalue = [8, 1]"] ;
317 -> 319 ;
320 [label="entropy = 0.0\nsamples = 8\nvalue = [8, 0]"] ;
319 -> 320 ;
321 [label="entropy = 0.0\nsamples = 1\nvalue = [0, 1]"] ;
319 -> 321 ;
322 [label="X[107] <= 0.5\nentropy = 0.126\nsamples = 174\nvalue = [171, 3]"] ;
316 -> 322 ;
323 [label="entropy = 0.0\nsamples = 81\nvalue = [81, 0]"] ;
322 -> 323 ;
324 [label="X[243] <= 1550.05\nentropy = 0.206\nsamples = 93\nvalue = [90, 3]"] ;
322 -> 324 ;
325 [label="entropy = 0.0\nsamples = 40\nvalue = [40, 0]"] ;
324 -> 325 ;
326 [label="entropy = 0.314\nsamples = 53\nvalue = [50, 3]"] ;
324 -> 326 ;
327 [label="X[188] <= 0.5\nentropy = 0.544\nsamples = 8\nvalue = [7, 1]"] ;
315 -> 327 ;
328 [label="entropy = 0.0\nsamples = 6\nvalue = [6, 0]"] ;
327 -> 328 ;
329 [label="X[243] <= 1301.07\nentropy = 1.0\nsamples = 2\nvalue = [1, 1]"] ;
327 -> 329 ;
330 [label="entropy = 0.0\nsamples = 1\nvalue = [0, 1]"] ;
329 -> 330 ;
331 [label="entropy = 0.0\nsamples = 1\nvalue = [1, 0]"] ;
329 -> 331 ;
332 [label="X[337] <= 0.5\nentropy = 0.362\nsamples = 29\nvalue = [27, 2]"] ;
314 -> 332 ;
333 [label="X[175] <= 0.5\nentropy = 0.971\nsamples = 5\nvalue = [3, 2]"] ;
332 -> 333 ;
334 [label="entropy = 0.0\nsamples = 3\nvalue = [3, 0]"] ;
333 -> 334 ;
335 [label="entropy = 0.0\nsamples = 2\nvalue = [0, 2]"] ;
333 -> 335 ;
336 [label="entropy = 0.0\nsamples = 24\nvalue = [24, 0]"] ;
332 -> 336 ;
337 [label="X[324] <= 0.5\nentropy = 1.0\nsamples = 2\nvalue = [1, 1]"] ;
313 -> 337 ;
338 [label="entropy = 0.0\nsamples = 1\nvalue = [0, 1]"] ;
337 -> 338 ;
339 [label="entropy = 0.0\nsamples = 1\nvalue = [1, 0]"] ;
337 -> 339 ;
340 [label="X[2] <= 18.5\nentropy = 0.592\nsamples = 77387\nvalue = [66319, 11068]"] ;
0 -> 340 [labeldistance=2.5, labelangle=-45, headlabel="False"] ;
341 [label="X[347] <= 0.5\nentropy = 0.836\nsamples = 32376\nvalue = [23762, 8614]"] ;
340 -> 341 ;
342 [label="X[8] <= 9088.0\nentropy = 0.553\nsamples = 14563\nvalue = [12691, 1872]"] ;
341 -> 342 ;
343 [label="X[199] <= 99.5\nentropy = 0.523\nsamples = 14319\nvalue = [12634, 1685]"] ;
342 -> 343 ;
344 [label="X[0] <= 30.5\nentropy = 0.437\nsamples = 12155\nvalue = [11058, 1097]"] ;
343 -> 344 ;
345 [label="X[0] <= 23.5\nentropy = 0.214\nsamples = 2995\nvalue = [2893, 102]"] ;
344 -> 345 ;
346 [label="X[243] <= 1058.72\nentropy = 0.052\nsamples = 676\nvalue = [672, 4]"] ;
345 -> 346 ;
347 [label="X[11] <= 0.5\nentropy = 0.174\nsamples = 154\nvalue = [150, 4]"] ;
346 -> 347 ;
348 [label="X[243] <= 1031.565\nentropy = 0.103\nsamples = 149\nvalue = [147, 2]"] ;
347 -> 348 ;
349 [label="entropy = 0.0\nsamples = 139\nvalue = [139, 0]"] ;
348 -> 349 ;
350 [label="entropy = 0.722\nsamples = 10\nvalue = [8, 2]"] ;
348 -> 350 ;
351 [label="X[306] <= 0.5\nentropy = 0.971\nsamples = 5\nvalue = [3, 2]"] ;
347 -> 351 ;
352 [label="entropy = 0.0\nsamples = 3\nvalue = [3, 0]"] ;
351 -> 352 ;
353 [label="entropy = 0.0\nsamples = 2\nvalue = [0, 2]"] ;
351 -> 353 ;
354 [label="entropy = 0.0\nsamples = 522\nvalue = [522, 0]"] ;
346 -> 354 ;
355 [label="X[9] <= 1534.0\nentropy = 0.253\nsamples = 2319\nvalue = [2221, 98]"] ;
345 -> 355 ;
356 [label="X[103] <= 0.5\nentropy = 0.236\nsamples = 2274\nvalue = [2186, 88]"] ;
355 -> 356 ;
357 [label="X[258] <= 0.5\nentropy = 0.231\nsamples = 2269\nvalue = [2184, 85]"] ;
356 -> 357 ;
358 [label="entropy = 0.213\nsamples = 2166\nvalue = [2093, 73]"] ;
357 -> 358 ;
359 [label="entropy = 0.519\nsamples = 103\nvalue = [91, 12]"] ;
357 -> 359 ;
360 [label="X[3] <= 5.0\nentropy = 0.971\nsamples = 5\nvalue = [2, 3]"] ;
356 -> 360 ;
361 [label="entropy = 0.918\nsamples = 3\nvalue = [2, 1]"] ;
360 -> 361 ;
362 [label="entropy = 0.0\nsamples = 2\nvalue = [0, 2]"] ;
360 -> 362 ;
363 [label="X[294] <= 0.5\nentropy = 0.764\nsamples = 45\nvalue = [35, 10]"] ;
355 -> 363 ;
364 [label="entropy = 0.0\nsamples = 12\nvalue = [12, 0]"] ;
363 -> 364 ;
365 [label="X[243] <= 778.625\nentropy = 0.885\nsamples = 33\nvalue = [23, 10]"] ;
363 -> 365 ;
366 [label="entropy = 0.0\nsamples = 7\nvalue = [7, 0]"] ;
365 -> 366 ;
367 [label="entropy = 0.961\nsamples = 26\nvalue = [16, 10]"] ;
365 -> 367 ;
368 [label="X[212] <= 0.5\nentropy = 0.496\nsamples = 9160\nvalue = [8165, 995]"] ;
344 -> 368 ;
369 [label="X[216] <= 0.5\nentropy = 0.551\nsamples = 7118\nvalue = [6209, 909]"] ;
368 -> 369 ;
370 [label="X[215] <= 0.5\nentropy = 0.609\nsamples = 5401\nvalue = [4592, 809]"] ;
369 -> 370 ;
371 [label="X[211] <= 0.5\nentropy = 0.584\nsamples = 5216\nvalue = [4487, 729]"] ;
370 -> 371 ;
372 [label="entropy = 0.561\nsamples = 5078\nvalue = [4412, 666]"] ;
371 -> 372 ;
373 [label="entropy = 0.995\nsamples = 138\nvalue = [75, 63]"] ;
371 -> 373 ;
374 [label="X[2] <= 11.5\nentropy = 0.987\nsamples = 185\nvalue = [105, 80]"] ;
370 -> 374 ;
375 [label="entropy = 0.999\nsamples = 159\nvalue = [83, 76]"] ;
374 -> 375 ;
376 [label="entropy = 0.619\nsamples = 26\nvalue = [22, 4]"] ;
374 -> 376 ;
377 [label="X[9] <= 1975.5\nentropy = 0.32\nsamples = 1717\nvalue = [1617, 100]"] ;
369 -> 377 ;
378 [label="X[254] <= 0.5\nentropy = 0.308\nsamples = 1703\nvalue = [1609, 94]"] ;
377 -> 378 ;
379 [label="entropy = 0.269\nsamples = 1460\nvalue = [1393, 67]"] ;
378 -> 379 ;
380 [label="entropy = 0.503\nsamples = 243\nvalue = [216, 27]"] ;
378 -> 380 ;
381 [label="X[0] <= 50.0\nentropy = 0.985\nsamples = 14\nvalue = [8, 6]"] ;
377 -> 381 ;
382 [label="entropy = 0.863\nsamples = 7\nvalue = [2, 5]"] ;
381 -> 382 ;
383 [label="entropy = 0.592\nsamples = 7\nvalue = [6, 1]"] ;
381 -> 383 ;
384 [label="X[15] <= 0.5\nentropy = 0.252\nsamples = 2042\nvalue = [1956, 86]"] ;
368 -> 384 ;
385 [label="X[110] <= 0.5\nentropy = 0.229\nsamples = 1966\nvalue = [1893, 73]"] ;
384 -> 385 ;
386 [label="X[0] <= 33.5\nentropy = 0.216\nsamples = 1947\nvalue = [1880, 67]"] ;
385 -> 386 ;
387 [label="entropy = 0.0\nsamples = 204\nvalue = [204, 0]"] ;
386 -> 387 ;
388 [label="entropy = 0.235\nsamples = 1743\nvalue = [1676, 67]"] ;
386 -> 388 ;
389 [label="X[19] <= 0.5\nentropy = 0.9\nsamples = 19\nvalue = [13, 6]"] ;
385 -> 389 ;
390 [label="entropy = 0.414\nsamples = 12\nvalue = [11, 1]"] ;
389 -> 390 ;
391 [label="entropy = 0.863\nsamples = 7\nvalue = [2, 5]"] ;
389 -> 391 ;
392 [label="X[1] <= 33.5\nentropy = 0.66\nsamples = 76\nvalue = [63, 13]"] ;
384 -> 392 ;
393 [label="entropy = 0.0\nsamples = 19\nvalue = [19, 0]"] ;
392 -> 393 ;
394 [label="X[1] <= 41.5\nentropy = 0.775\nsamples = 57\nvalue = [44, 13]"] ;
392 -> 394 ;
395 [label="entropy = 0.811\nsamples = 4\nvalue = [1, 3]"] ;
394 -> 395 ;
396 [label="entropy = 0.699\nsamples = 53\nvalue = [43, 10]"] ;
394 -> 396 ;
397 [label="X[199] <= 9575.0\nentropy = 0.844\nsamples = 2164\nvalue = [1576, 588]"] ;
343 -> 397 ;
398 [label="X[215] <= 0.5\nentropy = 0.817\nsamples = 2087\nvalue = [1558, 529]"] ;
397 -> 398 ;
399 [label="X[9] <= 1939.5\nentropy = 0.792\nsamples = 2013\nvalue = [1533, 480]"] ;
398 -> 399 ;
400 [label="X[212] <= 0.5\nentropy = 0.776\nsamples = 1978\nvalue = [1525, 453]"] ;
399 -> 400 ;
401 [label="X[3] <= 4.5\nentropy = 0.811\nsamples = 1736\nvalue = [1302, 434]"] ;
400 -> 401 ;
402 [label="entropy = 0.684\nsamples = 841\nvalue = [688, 153]"] ;
401 -> 402 ;
403 [label="entropy = 0.898\nsamples = 895\nvalue = [614, 281]"] ;
401 -> 403 ;
404 [label="X[199] <= 396.0\nentropy = 0.397\nsamples = 242\nvalue = [223, 19]"] ;
400 -> 404 ;
405 [label="entropy = 0.169\nsamples = 120\nvalue = [117, 3]"] ;
404 -> 405 ;
406 [label="entropy = 0.561\nsamples = 122\nvalue = [106, 16]"] ;
404 -> 406 ;
407 [label="X[243] <= 3087.92\nentropy = 0.776\nsamples = 35\nvalue = [8, 27]"] ;
399 -> 407 ;
408 [label="X[226] <= 0.5\nentropy = 0.625\nsamples = 32\nvalue = [5, 27]"] ;
407 -> 408 ;
409 [label="entropy = 0.831\nsamples = 19\nvalue = [5, 14]"] ;
408 -> 409 ;
410 [label="entropy = 0.0\nsamples = 13\nvalue = [0, 13]"] ;
408 -> 410 ;
411 [label="entropy = 0.0\nsamples = 3\nvalue = [3, 0]"] ;
407 -> 411 ;
412 [label="X[0] <= 28.0\nentropy = 0.923\nsamples = 74\nvalue = [25, 49]"] ;
398 -> 412 ;
413 [label="entropy = 0.0\nsamples = 3\nvalue = [3, 0]"] ;
412 -> 413 ;
414 [label="X[20] <= 0.5\nentropy = 0.893\nsamples = 71\nvalue = [22, 49]"] ;
412 -> 414 ;
415 [label="X[199] <= 421.5\nentropy = 0.928\nsamples = 64\nvalue = [22, 42]"] ;
414 -> 415 ;
416 [label="entropy = 0.629\nsamples = 19\nvalue = [3, 16]"] ;
415 -> 416 ;
417 [label="entropy = 0.982\nsamples = 45\nvalue = [19, 26]"] ;
415 -> 417 ;
418 [label="entropy = 0.0\nsamples = 7\nvalue = [0, 7]"] ;
414 -> 418 ;
419 [label="X[243] <= 2407.505\nentropy = 0.785\nsamples = 77\nvalue = [18, 59]"] ;
397 -> 419 ;
420 [label="X[1] <= 34.5\nentropy = 0.875\nsamples = 61\nvalue = [18, 43]"] ;
419 -> 420 ;
421 [label="X[6] <= 49.5\nentropy = 0.276\nsamples = 21\nvalue = [1, 20]"] ;
420 -> 421 ;
422 [label="entropy = 0.0\nsamples = 1\nvalue = [1, 0]"] ;
421 -> 422 ;
423 [label="entropy = 0.0\nsamples = 20\nvalue = [0, 20]"] ;
421 -> 423 ;
424 [label="X[226] <= 0.5\nentropy = 0.984\nsamples = 40\nvalue = [17, 23]"] ;
420 -> 424 ;
425 [label="X[2] <= 13.5\nentropy = 0.983\nsamples = 26\nvalue = [15, 11]"] ;
424 -> 425 ;
426 [label="entropy = 0.918\nsamples = 21\nvalue = [14, 7]"] ;
425 -> 426 ;
427 [label="entropy = 0.722\nsamples = 5\nvalue = [1, 4]"] ;
425 -> 427 ;
428 [label="X[294] <= 0.5\nentropy = 0.592\nsamples = 14\nvalue = [2, 12]"] ;
424 -> 428 ;
429 [label="entropy = 1.0\nsamples = 4\nvalue = [2, 2]"] ;
428 -> 429 ;
430 [label="entropy = 0.0\nsamples = 10\nvalue = [0, 10]"] ;
428 -> 430 ;
431 [label="entropy = 0.0\nsamples = 16\nvalue = [0, 16]"] ;
419 -> 431 ;
432 [label="X[401] <= 0.5\nentropy = 0.784\nsamples = 244\nvalue = [57, 187]"] ;
342 -> 432 ;
433 [label="X[8] <= 14682.0\nentropy = 0.476\nsamples = 137\nvalue = [14, 123]"] ;
432 -> 433 ;
434 [label="X[8] <= 14214.0\nentropy = 0.641\nsamples = 86\nvalue = [14, 72]"] ;
433 -> 434 ;
435 [label="X[243] <= 1983.11\nentropy = 0.297\nsamples = 76\nvalue = [4, 72]"] ;
434 -> 435 ;
436 [label="entropy = 0.0\nsamples = 49\nvalue = [0, 49]"] ;
435 -> 436 ;
437 [label="X[173] <= 0.5\nentropy = 0.605\nsamples = 27\nvalue = [4, 23]"] ;
435 -> 437 ;
438 [label="X[230] <= 0.5\nentropy = 0.402\nsamples = 25\nvalue = [2, 23]"] ;
437 -> 438 ;
439 [label="entropy = 0.25\nsamples = 24\nvalue = [1, 23]"] ;
438 -> 439 ;
440 [label="entropy = 0.0\nsamples = 1\nvalue = [1, 0]"] ;
438 -> 440 ;
441 [label="entropy = 0.0\nsamples = 2\nvalue = [2, 0]"] ;
437 -> 441 ;
442 [label="entropy = 0.0\nsamples = 10\nvalue = [10, 0]"] ;
434 -> 442 ;
443 [label="entropy = 0.0\nsamples = 51\nvalue = [0, 51]"] ;
433 -> 443 ;
444 [label="X[11] <= 0.5\nentropy = 0.972\nsamples = 107\nvalue = [43, 64]"] ;
432 -> 444 ;
445 [label="X[199] <= 2475.0\nentropy = 0.949\nsamples = 98\nvalue = [36, 62]"] ;
444 -> 445 ;
446 [label="X[0] <= 34.5\nentropy = 0.968\nsamples = 91\nvalue = [36, 55]"] ;
445 -> 446 ;
447 [label="X[0] <= 27.5\nentropy = 0.592\nsamples = 14\nvalue = [2, 12]"] ;
446 -> 447 ;
448 [label="entropy = 0.0\nsamples = 2\nvalue = [2, 0]"] ;
447 -> 448 ;
449 [label="entropy = 0.0\nsamples = 12\nvalue = [0, 12]"] ;
447 -> 449 ;
450 [label="X[1] <= 37.5\nentropy = 0.99\nsamples = 77\nvalue = [34, 43]"] ;
446 -> 450 ;
451 [label="X[2] <= 17.5\nentropy = 0.893\nsamples = 42\nvalue = [13, 29]"] ;
450 -> 451 ;
452 [label="entropy = 0.849\nsamples = 40\nvalue = [11, 29]"] ;
451 -> 452 ;
453 [label="entropy = 0.0\nsamples = 2\nvalue = [2, 0]"] ;
451 -> 453 ;
454 [label="X[233] <= 0.5\nentropy = 0.971\nsamples = 35\nvalue = [21, 14]"] ;
450 -> 454 ;
455 [label="entropy = 0.0\nsamples = 3\nvalue = [0, 3]"] ;
454 -> 455 ;
456 [label="entropy = 0.928\nsamples = 32\nvalue = [21, 11]"] ;
454 -> 456 ;
457 [label="entropy = 0.0\nsamples = 7\nvalue = [0, 7]"] ;
445 -> 457 ;
458 [label="X[1] <= 32.5\nentropy = 0.764\nsamples = 9\nvalue = [7, 2]"] ;
444 -> 458 ;
459 [label="entropy = 0.0\nsamples = 2\nvalue = [0, 2]"] ;
458 -> 459 ;
460 [label="entropy = 0.0\nsamples = 7\nvalue = [7, 0]"] ;
458 -> 460 ;
461 [label="X[8] <= 10041.0\nentropy = 0.957\nsamples = 17813\nvalue = [11071, 6742]"] ;
341 -> 461 ;
462 [label="X[199] <= 6.5\nentropy = 0.927\nsamples = 16739\nvalue = [11018, 5721]"] ;
461 -> 462 ;
463 [label="X[0] <= 30.5\nentropy = 0.832\nsamples = 12403\nvalue = [9134, 3269]"] ;
462 -> 463 ;
464 [label="X[0] <= 26.5\nentropy = 0.377\nsamples = 2772\nvalue = [2570, 202]"] ;
463 -> 464 ;
465 [label="X[9] <= 1881.5\nentropy = 0.183\nsamples = 1366\nvalue = [1328, 38]"] ;
464 -> 465 ;
466 [label="X[243] <= 1302.265\nentropy = 0.162\nsamples = 1345\nvalue = [1313, 32]"] ;
465 -> 466 ;
467 [label="X[242] <= 0.5\nentropy = 0.023\nsamples = 442\nvalue = [441, 1]"] ;
466 -> 467 ;
468 [label="entropy = 0.0\nsamples = 433\nvalue = [433, 0]"] ;
467 -> 468 ;
469 [label="entropy = 0.503\nsamples = 9\nvalue = [8, 1]"] ;
467 -> 469 ;
470 [label="X[8] <= 7493.0\nentropy = 0.216\nsamples = 903\nvalue = [872, 31]"] ;
466 -> 470 ;
471 [label="entropy = 0.2\nsamples = 900\nvalue = [872, 28]"] ;
470 -> 471 ;
472 [label="entropy = 0.0\nsamples = 3\nvalue = [0, 3]"] ;
470 -> 472 ;
473 [label="X[19] <= 0.5\nentropy = 0.863\nsamples = 21\nvalue = [15, 6]"] ;
465 -> 473 ;
474 [label="entropy = 0.0\nsamples = 9\nvalue = [9, 0]"] ;
473 -> 474 ;
475 [label="X[4] <= 0.5\nentropy = 1.0\nsamples = 12\nvalue = [6, 6]"] ;
473 -> 475 ;
476 [label="entropy = 0.918\nsamples = 9\nvalue = [3, 6]"] ;
475 -> 476 ;
477 [label="entropy = 0.0\nsamples = 3\nvalue = [3, 0]"] ;
475 -> 477 ;
478 [label="X[225] <= 0.5\nentropy = 0.52\nsamples = 1406\nvalue = [1242, 164]"] ;
464 -> 478 ;
479 [label="X[401] <= 0.5\nentropy = 0.627\nsamples = 656\nvalue = [553, 103]"] ;
478 -> 479 ;
480 [label="X[9] <= 2116.0\nentropy = 0.471\nsamples = 298\nvalue = [268, 30]"] ;
479 -> 480 ;
481 [label="entropy = 0.433\nsamples = 292\nvalue = [266, 26]"] ;
480 -> 481 ;
482 [label="entropy = 0.918\nsamples = 6\nvalue = [2, 4]"] ;
480 -> 482 ;
483 [label="X[243] <= 3595.155\nentropy = 0.73\nsamples = 358\nvalue = [285, 73]"] ;
479 -> 483 ;
484 [label="entropy = 0.755\nsamples = 336\nvalue = [263, 73]"] ;
483 -> 484 ;
485 [label="entropy = 0.0\nsamples = 22\nvalue = [22, 0]"] ;
483 -> 485 ;
486 [label="X[9] <= 1889.0\nentropy = 0.407\nsamples = 750\nvalue = [689, 61]"] ;
478 -> 486 ;
487 [label="X[216] <= 0.5\nentropy = 0.387\nsamples = 739\nvalue = [683, 56]"] ;
486 -> 487 ;
488 [label="entropy = 0.434\nsamples = 593\nvalue = [540, 53]"] ;
487 -> 488 ;
489 [label="entropy = 0.145\nsamples = 146\nvalue = [143, 3]"] ;
487 -> 489 ;
490 [label="X[273] <= 0.5\nentropy = 0.994\nsamples = 11\nvalue = [6, 5]"] ;
486 -> 490 ;
491 [label="entropy = 0.918\nsamples = 9\nvalue = [6, 3]"] ;
490 -> 491 ;
492 [label="entropy = 0.0\nsamples = 2\nvalue = [0, 2]"] ;
490 -> 492 ;
493 [label="X[9] <= 1894.5\nentropy = 0.903\nsamples = 9631\nvalue = [6564, 3067]"] ;
463 -> 493 ;
494 [label="X[288] <= 0.5\nentropy = 0.883\nsamples = 9266\nvalue = [6470, 2796]"] ;
493 -> 494 ;
495 [label="X[215] <= 0.5\nentropy = 0.672\nsamples = 1872\nvalue = [1542, 330]"] ;
494 -> 495 ;
496 [label="X[195] <= 0.5\nentropy = 0.64\nsamples = 1792\nvalue = [1501, 291]"] ;
495 -> 496 ;
497 [label="entropy = 0.383\nsamples = 456\nvalue = [422, 34]"] ;
496 -> 497 ;
498 [label="entropy = 0.706\nsamples = 1336\nvalue = [1079, 257]"] ;
496 -> 498 ;
499 [label="X[4] <= 0.5\nentropy = 1.0\nsamples = 80\nvalue = [41, 39]"] ;
495 -> 499 ;
500 [label="entropy = 0.995\nsamples = 70\nvalue = [32, 38]"] ;
499 -> 500 ;
501 [label="entropy = 0.469\nsamples = 10\nvalue = [9, 1]"] ;
499 -> 501 ;
502 [label="X[212] <= 0.5\nentropy = 0.918\nsamples = 7394\nvalue = [4928, 2466]"] ;
494 -> 502 ;
503 [label="X[216] <= 0.5\nentropy = 0.946\nsamples = 5985\nvalue = [3807, 2178]"] ;
502 -> 503 ;
504 [label="entropy = 0.973\nsamples = 4573\nvalue = [2731, 1842]"] ;
503 -> 504 ;
505 [label="entropy = 0.792\nsamples = 1412\nvalue = [1076, 336]"] ;
503 -> 505 ;
506 [label="X[20] <= 0.5\nentropy = 0.731\nsamples = 1409\nvalue = [1121, 288]"] ;
502 -> 506 ;
507 [label="entropy = 0.68\nsamples = 1245\nvalue = [1021, 224]"] ;
506 -> 507 ;
508 [label="entropy = 0.965\nsamples = 164\nvalue = [100, 64]"] ;
506 -> 508 ;
509 [label="X[9] <= 1978.5\nentropy = 0.823\nsamples = 365\nvalue = [94, 271]"] ;
493 -> 509 ;
510 [label="X[9] <= 1975.5\nentropy = 0.708\nsamples = 259\nvalue = [50, 209]"] ;
509 -> 510 ;
511 [label="X[1] <= 37.5\nentropy = 0.923\nsamples = 133\nvalue = [45, 88]"] ;
510 -> 511 ;
512 [label="entropy = 0.767\nsamples = 76\nvalue = [17, 59]"] ;
511 -> 512 ;
513 [label="entropy = 1.0\nsamples = 57\nvalue = [28, 29]"] ;
511 -> 513 ;
514 [label="X[16] <= 0.5\nentropy = 0.241\nsamples = 126\nvalue = [5, 121]"] ;
510 -> 514 ;
515 [label="entropy = 0.17\nsamples = 119\nvalue = [3, 116]"] ;
514 -> 515 ;
516 [label="entropy = 0.863\nsamples = 7\nvalue = [2, 5]"] ;
514 -> 516 ;
517 [label="X[9] <= 2161.5\nentropy = 0.979\nsamples = 106\nvalue = [44, 62]"] ;
509 -> 517 ;
518 [label="entropy = 0.0\nsamples = 29\nvalue = [29, 0]"] ;
517 -> 518 ;
519 [label="X[9] <= 2396.0\nentropy = 0.711\nsamples = 77\nvalue = [15, 62]"] ;
517 -> 519 ;
520 [label="entropy = 0.978\nsamples = 29\nvalue = [12, 17]"] ;
519 -> 520 ;
521 [label="entropy = 0.337\nsamples = 48\nvalue = [3, 45]"] ;
519 -> 521 ;
522 [label="X[9] <= 1975.5\nentropy = 0.988\nsamples = 4336\nvalue = [1884, 2452]"] ;
462 -> 522 ;
523 [label="X[0] <= 29.5\nentropy = 0.995\nsamples = 4079\nvalue = [1873, 2206]"] ;
522 -> 523 ;
524 [label="X[0] <= 27.5\nentropy = 0.701\nsamples = 295\nvalue = [239, 56]"] ;
523 -> 524 ;
525 [label="X[243] <= 3176.055\nentropy = 0.55\nsamples = 165\nvalue = [144, 21]"] ;
524 -> 525 ;
526 [label="X[215] <= 0.5\nentropy = 0.592\nsamples = 147\nvalue = [126, 21]"] ;
525 -> 526 ;
527 [label="entropy = 0.56\nsamples = 145\nvalue = [126, 19]"] ;
526 -> 527 ;
528 [label="entropy = 0.0\nsamples = 2\nvalue = [0, 2]"] ;
526 -> 528 ;
529 [label="entropy = 0.0\nsamples = 18\nvalue = [18, 0]"] ;
525 -> 529 ;
530 [label="X[199] <= 9.5\nentropy = 0.84\nsamples = 130\nvalue = [95, 35]"] ;
524 -> 530 ;
531 [label="entropy = 0.0\nsamples = 4\nvalue = [0, 4]"] ;
530 -> 531 ;
532 [label="X[2] <= 17.5\nentropy = 0.805\nsamples = 126\nvalue = [95, 31]"] ;
530 -> 532 ;
533 [label="entropy = 0.745\nsamples = 118\nvalue = [93, 25]"] ;
532 -> 533 ;
534 [label="entropy = 0.811\nsamples = 8\nvalue = [2, 6]"] ;
532 -> 534 ;
535 [label="X[2] <= 9.5\nentropy = 0.987\nsamples = 3784\nvalue = [1634, 2150]"] ;
523 -> 535 ;
536 [label="X[199] <= 358.5\nentropy = 0.948\nsamples = 2438\nvalue = [894, 1544]"] ;
535 -> 536 ;
537 [label="X[3] <= 5.5\nentropy = 0.988\nsamples = 1259\nvalue = [550, 709]"] ;
536 -> 537 ;
538 [label="entropy = 0.999\nsamples = 615\nvalue = [320, 295]"] ;
537 -> 538 ;
539 [label="entropy = 0.94\nsamples = 644\nvalue = [230, 414]"] ;
537 -> 539 ;
540 [label="X[3] <= 1.5\nentropy = 0.871\nsamples = 1179\nvalue = [344, 835]"] ;
536 -> 540 ;
541 [label="entropy = 1.0\nsamples = 199\nvalue = [98, 101]"] ;
540 -> 541 ;
542 [label="entropy = 0.813\nsamples = 980\nvalue = [246, 734]"] ;
540 -> 542 ;
543 [label="X[199] <= 480.5\nentropy = 0.993\nsamples = 1346\nvalue = [740, 606]"] ;
535 -> 543 ;
544 [label="X[216] <= 0.5\nentropy = 0.959\nsamples = 780\nvalue = [482, 298]"] ;
543 -> 544 ;
545 [label="entropy = 0.979\nsamples = 647\nvalue = [379, 268]"] ;
544 -> 545 ;
546 [label="entropy = 0.77\nsamples = 133\nvalue = [103, 30]"] ;
544 -> 546 ;
547 [label="X[199] <= 4650.0\nentropy = 0.994\nsamples = 566\nvalue = [258, 308]"] ;
543 -> 547 ;
548 [label="entropy = 1.0\nsamples = 477\nvalue = [233, 244]"] ;
547 -> 548 ;
549 [label="entropy = 0.857\nsamples = 89\nvalue = [25, 64]"] ;
547 -> 549 ;
550 [label="X[199] <= 122.5\nentropy = 0.255\nsamples = 257\nvalue = [11, 246]"] ;
522 -> 550 ;
551 [label="X[243] <= 1664.1\nentropy = 0.627\nsamples = 51\nvalue = [8, 43]"] ;
550 -> 551 ;
552 [label="entropy = 0.0\nsamples = 21\nvalue = [0, 21]"] ;
551 -> 552 ;
553 [label="X[243] <= 1875.005\nentropy = 0.837\nsamples = 30\nvalue = [8, 22]"] ;
551 -> 553 ;
554 [label="entropy = 0.0\nsamples = 5\nvalue = [5, 0]"] ;
553 -> 554 ;
555 [label="X[401] <= 0.5\nentropy = 0.529\nsamples = 25\nvalue = [3, 22]"] ;
553 -> 555 ;
556 [label="entropy = 0.811\nsamples = 4\nvalue = [3, 1]"] ;
555 -> 556 ;
557 [label="entropy = 0.0\nsamples = 21\nvalue = [0, 21]"] ;
555 -> 557 ;
558 [label="X[93] <= 0.5\nentropy = 0.11\nsamples = 206\nvalue = [3, 203]"] ;
550 -> 558 ;
559 [label="X[254] <= 0.5\nentropy = 0.079\nsamples = 205\nvalue = [2, 203]"] ;
558 -> 559 ;
560 [label="entropy = 0.0\nsamples = 172\nvalue = [0, 172]"] ;
559 -> 560 ;
561 [label="X[0] <= 27.0\nentropy = 0.33\nsamples = 33\nvalue = [2, 31]"] ;
559 -> 561 ;
562 [label="entropy = 0.0\nsamples = 1\nvalue = [1, 0]"] ;
561 -> 562 ;
563 [label="entropy = 0.201\nsamples = 32\nvalue = [1, 31]"] ;
561 -> 563 ;
564 [label="entropy = 0.0\nsamples = 1\nvalue = [1, 0]"] ;
558 -> 564 ;
565 [label="X[215] <= 0.5\nentropy = 0.284\nsamples = 1074\nvalue = [53, 1021]"] ;
461 -> 565 ;
566 [label="X[89] <= 0.5\nentropy = 0.328\nsamples = 882\nvalue = [53, 829]"] ;
565 -> 566 ;
567 [label="X[199] <= 105.5\nentropy = 0.311\nsamples = 876\nvalue = [49, 827]"] ;
566 -> 567 ;
568 [label="X[8] <= 14682.0\nentropy = 0.423\nsamples = 477\nvalue = [41, 436]"] ;
567 -> 568 ;
569 [label="X[8] <= 14214.0\nentropy = 0.745\nsamples = 85\nvalue = [18, 67]"] ;
568 -> 569 ;
570 [label="X[258] <= 0.5\nentropy = 0.587\nsamples = 78\nvalue = [11, 67]"] ;
569 -> 570 ;
571 [label="entropy = 0.367\nsamples = 71\nvalue = [5, 66]"] ;
570 -> 571 ;
572 [label="entropy = 0.592\nsamples = 7\nvalue = [6, 1]"] ;
570 -> 572 ;
573 [label="entropy = 0.0\nsamples = 7\nvalue = [7, 0]"] ;
569 -> 573 ;
574 [label="X[243] <= 1871.42\nentropy = 0.322\nsamples = 392\nvalue = [23, 369]"] ;
568 -> 574 ;
575 [label="X[408] <= 575.0\nentropy = 0.429\nsamples = 205\nvalue = [18, 187]"] ;
574 -> 575 ;
576 [label="entropy = 0.399\nsamples = 202\nvalue = [16, 186]"] ;
575 -> 576 ;
577 [label="entropy = 0.918\nsamples = 3\nvalue = [2, 1]"] ;
575 -> 577 ;
578 [label="X[240] <= 0.5\nentropy = 0.178\nsamples = 187\nvalue = [5, 182]"] ;
574 -> 578 ;
579 [label="entropy = 0.15\nsamples = 185\nvalue = [4, 181]"] ;
578 -> 579 ;
580 [label="entropy = 1.0\nsamples = 2\nvalue = [1, 1]"] ;
578 -> 580 ;
581 [label="X[50] <= 0.5\nentropy = 0.142\nsamples = 399\nvalue = [8, 391]"] ;
567 -> 581 ;
582 [label="X[387] <= 0.5\nentropy = 0.128\nsamples = 398\nvalue = [7, 391]"] ;
581 -> 582 ;
583 [label="X[243] <= 879.045\nentropy = 0.113\nsamples = 397\nvalue = [6, 391]"] ;
582 -> 583 ;
584 [label="entropy = 0.327\nsamples = 50\nvalue = [3, 47]"] ;
583 -> 584 ;
585 [label="entropy = 0.072\nsamples = 347\nvalue = [3, 344]"] ;
583 -> 585 ;
586 [label="entropy = 0.0\nsamples = 1\nvalue = [1, 0]"] ;
582 -> 586 ;
587 [label="entropy = 0.0\nsamples = 1\nvalue = [1, 0]"] ;
581 -> 587 ;
588 [label="X[199] <= 300.0\nentropy = 0.918\nsamples = 6\nvalue = [4, 2]"] ;
566 -> 588 ;
589 [label="X[243] <= 1012.4\nentropy = 0.918\nsamples = 3\nvalue = [1, 2]"] ;
588 -> 589 ;
590 [label="entropy = 0.0\nsamples = 1\nvalue = [1, 0]"] ;
589 -> 590 ;
591 [label="entropy = 0.0\nsamples = 2\nvalue = [0, 2]"] ;
589 -> 591 ;
592 [label="entropy = 0.0\nsamples = 3\nvalue = [3, 0]"] ;
588 -> 592 ;
593 [label="entropy = 0.0\nsamples = 192\nvalue = [0, 192]"] ;
565 -> 593 ;
594 [label="X[347] <= 0.5\nentropy = 0.305\nsamples = 45011\nvalue = [42557, 2454]"] ;
340 -> 594 ;
595 [label="X[8] <= 9474.0\nentropy = 0.121\nsamples = 20293\nvalue = [19959, 334]"] ;
594 -> 595 ;
596 [label="X[199] <= 378.0\nentropy = 0.111\nsamples = 20236\nvalue = [19937, 299]"] ;
595 -> 596 ;
597 [label="X[209] <= 0.5\nentropy = 0.09\nsamples = 19496\nvalue = [19274, 222]"] ;
596 -> 597 ;
598 [label="X[195] <= 0.5\nentropy = 0.076\nsamples = 18143\nvalue = [17974, 169]"] ;
597 -> 598 ;
599 [label="X[214] <= 0.5\nentropy = 0.054\nsamples = 12007\nvalue = [11934, 73]"] ;
598 -> 599 ;
600 [label="X[0] <= 34.5\nentropy = 0.05\nsamples = 11917\nvalue = [11850, 67]"] ;
599 -> 600 ;
601 [label="X[2] <= 36.5\nentropy = 0.029\nsamples = 5135\nvalue = [5120, 15]"] ;
600 -> 601 ;
602 [label="entropy = 0.018\nsamples = 4730\nvalue = [4722, 8]"] ;
601 -> 602 ;
603 [label="entropy = 0.126\nsamples = 405\nvalue = [398, 7]"] ;
601 -> 603 ;
604 [label="X[216] <= 0.5\nentropy = 0.065\nsamples = 6782\nvalue = [6730, 52]"] ;
600 -> 604 ;
605 [label="entropy = 0.05\nsamples = 5371\nvalue = [5341, 30]"] ;
604 -> 605 ;
606 [label="entropy = 0.116\nsamples = 1411\nvalue = [1389, 22]"] ;
604 -> 606 ;
607 [label="X[3] <= 5.5\nentropy = 0.353\nsamples = 90\nvalue = [84, 6]"] ;
599 -> 607 ;
608 [label="entropy = 0.0\nsamples = 59\nvalue = [59, 0]"] ;
607 -> 608 ;
609 [label="X[199] <= 37.5\nentropy = 0.709\nsamples = 31\nvalue = [25, 6]"] ;
607 -> 609 ;
610 [label="entropy = 0.592\nsamples = 28\nvalue = [24, 4]"] ;
609 -> 610 ;
611 [label="entropy = 0.918\nsamples = 3\nvalue = [1, 2]"] ;
609 -> 611 ;
612 [label="X[9] <= 1894.5\nentropy = 0.116\nsamples = 6136\nvalue = [6040, 96]"] ;
598 -> 612 ;
613 [label="X[1] <= 31.5\nentropy = 0.108\nsamples = 6054\nvalue = [5968, 86]"] ;
612 -> 613 ;
614 [label="X[3] <= 5.5\nentropy = 0.178\nsamples = 1529\nvalue = [1488, 41]"] ;
613 -> 614 ;
615 [label="entropy = 0.1\nsamples = 846\nvalue = [835, 11]"] ;
614 -> 615 ;
616 [label="entropy = 0.26\nsamples = 683\nvalue = [653, 30]"] ;
614 -> 616 ;
617 [label="X[99] <= 0.5\nentropy = 0.08\nsamples = 4525\nvalue = [4480, 45]"] ;
613 -> 617 ;
618 [label="entropy = 0.076\nsamples = 4505\nvalue = [4463, 42]"] ;
617 -> 618 ;
619 [label="entropy = 0.61\nsamples = 20\nvalue = [17, 3]"] ;
617 -> 619 ;
620 [label="X[9] <= 1978.5\nentropy = 0.535\nsamples = 82\nvalue = [72, 10]"] ;
612 -> 620 ;
621 [label="X[2] <= 24.5\nentropy = 0.9\nsamples = 19\nvalue = [13, 6]"] ;
620 -> 621 ;
622 [label="entropy = 0.503\nsamples = 9\nvalue = [8, 1]"] ;
621 -> 622 ;
623 [label="entropy = 1.0\nsamples = 10\nvalue = [5, 5]"] ;
621 -> 623 ;
624 [label="X[9] <= 2384.5\nentropy = 0.341\nsamples = 63\nvalue = [59, 4]"] ;
620 -> 624 ;
625 [label="entropy = 0.0\nsamples = 52\nvalue = [52, 0]"] ;
624 -> 625 ;
626 [label="entropy = 0.946\nsamples = 11\nvalue = [7, 4]"] ;
624 -> 626 ;
627 [label="X[408] <= 1815.0\nentropy = 0.238\nsamples = 1353\nvalue = [1300, 53]"] ;
597 -> 627 ;
628 [label="X[15] <= 0.5\nentropy = 0.225\nsamples = 1348\nvalue = [1299, 49]"] ;
627 -> 628 ;
629 [label="X[0] <= 32.5\nentropy = 0.201\nsamples = 1308\nvalue = [1267, 41]"] ;
628 -> 629 ;
630 [label="X[285] <= 0.5\nentropy = 0.078\nsamples = 521\nvalue = [516, 5]"] ;
629 -> 630 ;
631 [label="entropy = 0.051\nsamples = 518\nvalue = [515, 3]"] ;
630 -> 631 ;
632 [label="entropy = 0.918\nsamples = 3\nvalue = [1, 2]"] ;
630 -> 632 ;
633 [label="X[20] <= 0.5\nentropy = 0.268\nsamples = 787\nvalue = [751, 36]"] ;
629 -> 633 ;
634 [label="entropy = 0.242\nsamples = 752\nvalue = [722, 30]"] ;
633 -> 634 ;
635 [label="entropy = 0.661\nsamples = 35\nvalue = [29, 6]"] ;
633 -> 635 ;
636 [label="X[282] <= 0.5\nentropy = 0.722\nsamples = 40\nvalue = [32, 8]"] ;
628 -> 636 ;
637 [label="X[243] <= 466.05\nentropy = 0.523\nsamples = 34\nvalue = [30, 4]"] ;
636 -> 637 ;
638 [label="entropy = 0.985\nsamples = 7\nvalue = [4, 3]"] ;
637 -> 638 ;
639 [label="entropy = 0.229\nsamples = 27\nvalue = [26, 1]"] ;
637 -> 639 ;
640 [label="X[325] <= 0.5\nentropy = 0.918\nsamples = 6\nvalue = [2, 4]"] ;
636 -> 640 ;
641 [label="entropy = 0.918\nsamples = 3\nvalue = [2, 1]"] ;
640 -> 641 ;
642 [label="entropy = 0.0\nsamples = 3\nvalue = [0, 3]"] ;
640 -> 642 ;
643 [label="X[408] <= 2930.5\nentropy = 0.722\nsamples = 5\nvalue = [1, 4]"] ;
627 -> 643 ;
644 [label="entropy = 0.0\nsamples = 4\nvalue = [0, 4]"] ;
643 -> 644 ;
645 [label="entropy = 0.0\nsamples = 1\nvalue = [1, 0]"] ;
643 -> 645 ;
646 [label="X[199] <= 3804.5\nentropy = 0.482\nsamples = 740\nvalue = [663, 77]"] ;
596 -> 646 ;
647 [label="X[214] <= 0.5\nentropy = 0.407\nsamples = 640\nvalue = [588, 52]"] ;
646 -> 647 ;
648 [label="X[243] <= 1417.475\nentropy = 0.379\nsamples = 625\nvalue = [579, 46]"] ;
647 -> 648 ;
649 [label="X[199] <= 1788.0\nentropy = 0.187\nsamples = 246\nvalue = [239, 7]"] ;
648 -> 649 ;
650 [label="X[129] <= 0.5\nentropy = 0.084\nsamples = 192\nvalue = [190, 2]"] ;
649 -> 650 ;
651 [label="entropy = 0.047\nsamples = 190\nvalue = [189, 1]"] ;
650 -> 651 ;
652 [label="entropy = 1.0\nsamples = 2\nvalue = [1, 1]"] ;
650 -> 652 ;
653 [label="X[199] <= 1928.5\nentropy = 0.445\nsamples = 54\nvalue = [49, 5]"] ;
649 -> 653 ;
654 [label="entropy = 0.811\nsamples = 4\nvalue = [1, 3]"] ;
653 -> 654 ;
655 [label="entropy = 0.242\nsamples = 50\nvalue = [48, 2]"] ;
653 -> 655 ;
656 [label="X[236] <= 0.5\nentropy = 0.478\nsamples = 379\nvalue = [340, 39]"] ;
648 -> 656 ;
657 [label="X[1] <= 31.5\nentropy = 0.463\nsamples = 377\nvalue = [340, 37]"] ;
656 -> 657 ;
658 [label="entropy = 0.64\nsamples = 123\nvalue = [103, 20]"] ;
657 -> 658 ;
659 [label="entropy = 0.354\nsamples = 254\nvalue = [237, 17]"] ;
657 -> 659 ;
660 [label="entropy = 0.0\nsamples = 2\nvalue = [0, 2]"] ;
656 -> 660 ;
661 [label="X[243] <= 1024.98\nentropy = 0.971\nsamples = 15\nvalue = [9, 6]"] ;
647 -> 661 ;
662 [label="entropy = 0.0\nsamples = 3\nvalue = [0, 3]"] ;
661 -> 662 ;
663 [label="X[0] <= 41.5\nentropy = 0.811\nsamples = 12\nvalue = [9, 3]"] ;
661 -> 663 ;
664 [label="entropy = 0.0\nsamples = 2\nvalue = [0, 2]"] ;
663 -> 664 ;
665 [label="X[293] <= 0.5\nentropy = 0.469\nsamples = 10\nvalue = [9, 1]"] ;
663 -> 665 ;
666 [label="entropy = 0.0\nsamples = 9\nvalue = [9, 0]"] ;
665 -> 666 ;
667 [label="entropy = 0.0\nsamples = 1\nvalue = [0, 1]"] ;
665 -> 667 ;
668 [label="X[3] <= 1.5\nentropy = 0.811\nsamples = 100\nvalue = [75, 25]"] ;
646 -> 668 ;
669 [label="X[243] <= 1725.755\nentropy = 0.398\nsamples = 38\nvalue = [35, 3]"] ;
668 -> 669 ;
670 [label="entropy = 0.0\nsamples = 24\nvalue = [24, 0]"] ;
669 -> 670 ;
671 [label="X[402] <= 0.5\nentropy = 0.75\nsamples = 14\nvalue = [11, 3]"] ;
669 -> 671 ;
672 [label="X[243] <= 1754.86\nentropy = 0.414\nsamples = 12\nvalue = [11, 1]"] ;
671 -> 672 ;
673 [label="entropy = 0.0\nsamples = 1\nvalue = [0, 1]"] ;
672 -> 673 ;
674 [label="entropy = 0.0\nsamples = 11\nvalue = [11, 0]"] ;
672 -> 674 ;
675 [label="entropy = 0.0\nsamples = 2\nvalue = [0, 2]"] ;
671 -> 675 ;
676 [label="X[0] <= 37.0\nentropy = 0.938\nsamples = 62\nvalue = [40, 22]"] ;
668 -> 676 ;
677 [label="entropy = 0.0\nsamples = 10\nvalue = [10, 0]"] ;
676 -> 677 ;
678 [label="X[2] <= 22.0\nentropy = 0.983\nsamples = 52\nvalue = [30, 22]"] ;
676 -> 678 ;
679 [label="X[3] <= 3.5\nentropy = 0.592\nsamples = 7\nvalue = [1, 6]"] ;
678 -> 679 ;
680 [label="entropy = 0.0\nsamples = 1\nvalue = [1, 0]"] ;
679 -> 680 ;
681 [label="entropy = 0.0\nsamples = 6\nvalue = [0, 6]"] ;
679 -> 681 ;
682 [label="X[199] <= 7150.0\nentropy = 0.939\nsamples = 45\nvalue = [29, 16]"] ;
678 -> 682 ;
683 [label="entropy = 0.667\nsamples = 23\nvalue = [19, 4]"] ;
682 -> 683 ;
684 [label="entropy = 0.994\nsamples = 22\nvalue = [10, 12]"] ;
682 -> 684 ;
685 [label="X[288] <= 0.5\nentropy = 0.962\nsamples = 57\nvalue = [22, 35]"] ;
595 -> 685 ;
686 [label="X[8] <= 14682.0\nentropy = 0.711\nsamples = 36\nvalue = [7, 29]"] ;
685 -> 686 ;
687 [label="X[8] <= 14214.0\nentropy = 0.964\nsamples = 18\nvalue = [7, 11]"] ;
686 -> 687 ;
688 [label="X[20] <= 0.5\nentropy = 0.414\nsamples = 12\nvalue = [1, 11]"] ;
687 -> 688 ;
689 [label="entropy = 0.0\nsamples = 11\nvalue = [0, 11]"] ;
688 -> 689 ;
690 [label="entropy = 0.0\nsamples = 1\nvalue = [1, 0]"] ;
688 -> 690 ;
691 [label="entropy = 0.0\nsamples = 6\nvalue = [6, 0]"] ;
687 -> 691 ;
692 [label="entropy = 0.0\nsamples = 18\nvalue = [0, 18]"] ;
686 -> 692 ;
693 [label="X[11] <= 0.5\nentropy = 0.863\nsamples = 21\nvalue = [15, 6]"] ;
685 -> 693 ;
694 [label="X[243] <= 1867.0\nentropy = 0.65\nsamples = 18\nvalue = [15, 3]"] ;
693 -> 694 ;
695 [label="entropy = 0.0\nsamples = 11\nvalue = [11, 0]"] ;
694 -> 695 ;
696 [label="X[243] <= 2040.035\nentropy = 0.985\nsamples = 7\nvalue = [4, 3]"] ;
694 -> 696 ;
697 [label="entropy = 0.0\nsamples = 3\nvalue = [0, 3]"] ;
696 -> 697 ;
698 [label="entropy = 0.0\nsamples = 4\nvalue = [4, 0]"] ;
696 -> 698 ;
699 [label="entropy = 0.0\nsamples = 3\nvalue = [0, 3]"] ;
693 -> 699 ;
700 [label="X[8] <= 7364.0\nentropy = 0.422\nsamples = 24718\nvalue = [22598, 2120]"] ;
594 -> 700 ;
701 [label="X[199] <= 4.5\nentropy = 0.392\nsamples = 24362\nvalue = [22480, 1882]"] ;
700 -> 701 ;
702 [label="X[0] <= 29.5\nentropy = 0.33\nsamples = 22184\nvalue = [20836, 1348]"] ;
701 -> 702 ;
703 [label="X[9] <= 2218.0\nentropy = 0.122\nsamples = 6338\nvalue = [6233, 105]"] ;
702 -> 703 ;
704 [label="X[401] <= 0.5\nentropy = 0.114\nsamples = 6313\nvalue = [6217, 96]"] ;
703 -> 704 ;
705 [label="X[19] <= 0.5\nentropy = 0.066\nsamples = 4191\nvalue = [4158, 33]"] ;
704 -> 705 ;
706 [label="X[0] <= 21.5\nentropy = 0.166\nsamples = 489\nvalue = [477, 12]"] ;
705 -> 706 ;
707 [label="entropy = 0.0\nsamples = 145\nvalue = [145, 0]"] ;
706 -> 707 ;
708 [label="entropy = 0.218\nsamples = 344\nvalue = [332, 12]"] ;
706 -> 708 ;
709 [label="X[306] <= 0.5\nentropy = 0.05\nsamples = 3702\nvalue = [3681, 21]"] ;
705 -> 709 ;
710 [label="entropy = 0.017\nsamples = 1869\nvalue = [1866, 3]"] ;
709 -> 710 ;
711 [label="entropy = 0.08\nsamples = 1833\nvalue = [1815, 18]"] ;
709 -> 711 ;
712 [label="X[102] <= 0.5\nentropy = 0.193\nsamples = 2122\nvalue = [2059, 63]"] ;
704 -> 712 ;
713 [label="X[266] <= 0.5\nentropy = 0.186\nsamples = 2119\nvalue = [2059, 60]"] ;
712 -> 713 ;
714 [label="entropy = 0.211\nsamples = 1773\nvalue = [1714, 59]"] ;
713 -> 714 ;
715 [label="entropy = 0.029\nsamples = 346\nvalue = [345, 1]"] ;
713 -> 715 ;
716 [label="entropy = 0.0\nsamples = 3\nvalue = [0, 3]"] ;
712 -> 716 ;
717 [label="X[9] <= 2298.5\nentropy = 0.943\nsamples = 25\nvalue = [16, 9]"] ;
703 -> 717 ;
718 [label="entropy = 0.0\nsamples = 3\nvalue = [0, 3]"] ;
717 -> 718 ;
719 [label="X[9] <= 2396.0\nentropy = 0.845\nsamples = 22\nvalue = [16, 6]"] ;
717 -> 719 ;
720 [label="entropy = 0.0\nsamples = 11\nvalue = [11, 0]"] ;
719 -> 720 ;
721 [label="X[9] <= 2581.0\nentropy = 0.994\nsamples = 11\nvalue = [5, 6]"] ;
719 -> 721 ;
722 [label="entropy = 0.0\nsamples = 5\nvalue = [0, 5]"] ;
721 -> 722 ;
723 [label="entropy = 0.65\nsamples = 6\nvalue = [5, 1]"] ;
721 -> 723 ;
724 [label="X[3] <= 5.5\nentropy = 0.397\nsamples = 15846\nvalue = [14603, 1243]"] ;
702 -> 724 ;
725 [label="X[9] <= 1881.5\nentropy = 0.32\nsamples = 10674\nvalue = [10053, 621]"] ;
724 -> 725 ;
726 [label="X[401] <= 0.5\nentropy = 0.307\nsamples = 10458\nvalue = [9883, 575]"] ;
725 -> 726 ;
727 [label="X[2] <= 35.5\nentropy = 0.213\nsamples = 3318\nvalue = [3206, 112]"] ;
726 -> 727 ;
728 [label="entropy = 0.265\nsamples = 1889\nvalue = [1804, 85]"] ;
727 -> 728 ;
729 [label="entropy = 0.135\nsamples = 1429\nvalue = [1402, 27]"] ;
727 -> 729 ;
730 [label="X[278] <= 0.5\nentropy = 0.346\nsamples = 7140\nvalue = [6677, 463]"] ;
726 -> 730 ;
731 [label="entropy = 0.364\nsamples = 6554\nvalue = [6098, 456]"] ;
730 -> 731 ;
732 [label="entropy = 0.093\nsamples = 586\nvalue = [579, 7]"] ;
730 -> 732 ;
733 [label="X[9] <= 1978.5\nentropy = 0.747\nsamples = 216\nvalue = [170, 46]"] ;
725 -> 733 ;
734 [label="X[3] <= 1.5\nentropy = 0.902\nsamples = 107\nvalue = [73, 34]"] ;
733 -> 734 ;
735 [label="entropy = 0.99\nsamples = 34\nvalue = [15, 19]"] ;
734 -> 735 ;
736 [label="entropy = 0.733\nsamples = 73\nvalue = [58, 15]"] ;
734 -> 736 ;
737 [label="X[9] <= 2218.5\nentropy = 0.5\nsamples = 109\nvalue = [97, 12]"] ;
733 -> 737 ;
738 [label="entropy = 0.0\nsamples = 73\nvalue = [73, 0]"] ;
737 -> 738 ;
739 [label="entropy = 0.918\nsamples = 36\nvalue = [24, 12]"] ;
737 -> 739 ;
740 [label="X[266] <= 0.5\nentropy = 0.53\nsamples = 5172\nvalue = [4550, 622]"] ;
724 -> 740 ;
741 [label="X[278] <= 0.5\nentropy = 0.557\nsamples = 4703\nvalue = [4093, 610]"] ;
740 -> 741 ;
742 [label="X[2] <= 35.5\nentropy = 0.583\nsamples = 4268\nvalue = [3673, 595]"] ;
741 -> 742 ;
743 [label="entropy = 0.648\nsamples = 2583\nvalue = [2155, 428]"] ;
742 -> 743 ;
744 [label="entropy = 0.466\nsamples = 1685\nvalue = [1518, 167]"] ;
742 -> 744 ;
745 [label="X[0] <= 59.5\nentropy = 0.216\nsamples = 435\nvalue = [420, 15]"] ;
741 -> 745 ;
746 [label="entropy = 0.156\nsamples = 396\nvalue = [387, 9]"] ;
745 -> 746 ;
747 [label="entropy = 0.619\nsamples = 39\nvalue = [33, 6]"] ;
745 -> 747 ;
748 [label="X[214] <= 0.5\nentropy = 0.172\nsamples = 469\nvalue = [457, 12]"] ;
740 -> 748 ;
749 [label="X[339] <= 0.5\nentropy = 0.15\nsamples = 465\nvalue = [455, 10]"] ;
748 -> 749 ;
750 [label="entropy = 0.138\nsamples = 464\nvalue = [455, 9]"] ;
749 -> 750 ;
751 [label="entropy = 0.0\nsamples = 1\nvalue = [0, 1]"] ;
749 -> 751 ;
752 [label="X[243] <= 944.82\nentropy = 1.0\nsamples = 4\nvalue = [2, 2]"] ;
748 -> 752 ;
753 [label="entropy = 0.0\nsamples = 1\nvalue = [0, 1]"] ;
752 -> 753 ;
754 [label="entropy = 0.918\nsamples = 3\nvalue = [2, 1]"] ;
752 -> 754 ;
755 [label="X[3] <= 5.5\nentropy = 0.804\nsamples = 2178\nvalue = [1644, 534]"] ;
701 -> 755 ;
756 [label="X[199] <= 1130.5\nentropy = 0.634\nsamples = 1101\nvalue = [925, 176]"] ;
755 -> 756 ;
757 [label="X[0] <= 35.5\nentropy = 0.541\nsamples = 911\nvalue = [798, 113]"] ;
756 -> 757 ;
758 [label="X[0] <= 29.5\nentropy = 0.178\nsamples = 261\nvalue = [254, 7]"] ;
757 -> 758 ;
759 [label="entropy = 0.0\nsamples = 106\nvalue = [106, 0]"] ;
758 -> 759 ;
760 [label="X[0] <= 32.5\nentropy = 0.265\nsamples = 155\nvalue = [148, 7]"] ;
758 -> 760 ;
761 [label="entropy = 0.509\nsamples = 62\nvalue = [55, 7]"] ;
760 -> 761 ;
762 [label="entropy = 0.0\nsamples = 93\nvalue = [93, 0]"] ;
760 -> 762 ;
763 [label="X[282] <= 0.5\nentropy = 0.642\nsamples = 650\nvalue = [544, 106]"] ;
757 -> 763 ;
764 [label="X[408] <= 2490.0\nentropy = 0.609\nsamples = 622\nvalue = [529, 93]"] ;
763 -> 764 ;
765 [label="entropy = 0.598\nsamples = 619\nvalue = [529, 90]"] ;
764 -> 765 ;
766 [label="entropy = 0.0\nsamples = 3\nvalue = [0, 3]"] ;
764 -> 766 ;
767 [label="X[401] <= 0.5\nentropy = 0.996\nsamples = 28\nvalue = [15, 13]"] ;
763 -> 767 ;
768 [label="entropy = 0.0\nsamples = 4\nvalue = [4, 0]"] ;
767 -> 768 ;
769 [label="entropy = 0.995\nsamples = 24\nvalue = [11, 13]"] ;
767 -> 769 ;
770 [label="X[199] <= 21250.0\nentropy = 0.917\nsamples = 190\nvalue = [127, 63]"] ;
756 -> 770 ;
771 [label="X[0] <= 61.5\nentropy = 0.897\nsamples = 185\nvalue = [127, 58]"] ;
770 -> 771 ;
772 [label="X[191] <= 0.5\nentropy = 0.949\nsamples = 147\nvalue = [93, 54]"] ;
771 -> 772 ;
773 [label="entropy = 0.967\nsamples = 137\nvalue = [83, 54]"] ;
772 -> 773 ;
774 [label="entropy = 0.0\nsamples = 10\nvalue = [10, 0]"] ;
772 -> 774 ;
775 [label="X[1] <= 25.5\nentropy = 0.485\nsamples = 38\nvalue = [34, 4]"] ;
771 -> 775 ;
776 [label="entropy = 0.764\nsamples = 18\nvalue = [14, 4]"] ;
775 -> 776 ;
777 [label="entropy = 0.0\nsamples = 20\nvalue = [20, 0]"] ;
775 -> 777 ;
778 [label="entropy = 0.0\nsamples = 5\nvalue = [0, 5]"] ;
770 -> 778 ;
779 [label="X[199] <= 1505.0\nentropy = 0.917\nsamples = 1077\nvalue = [719, 358]"] ;
755 -> 779 ;
780 [label="X[0] <= 33.5\nentropy = 0.884\nsamples = 955\nvalue = [666, 289]"] ;
779 -> 780 ;
781 [label="X[1] <= 32.5\nentropy = 0.63\nsamples = 177\nvalue = [149, 28]"] ;
780 -> 781 ;
782 [label="X[408] <= 1725.0\nentropy = 0.82\nsamples = 90\nvalue = [67, 23]"] ;
781 -> 782 ;
783 [label="entropy = 0.778\nsamples = 87\nvalue = [67, 20]"] ;
782 -> 783 ;
784 [label="entropy = 0.0\nsamples = 3\nvalue = [0, 3]"] ;
782 -> 784 ;
785 [label="X[348] <= 0.5\nentropy = 0.317\nsamples = 87\nvalue = [82, 5]"] ;
781 -> 785 ;
786 [label="entropy = 0.271\nsamples = 86\nvalue = [82, 4]"] ;
785 -> 786 ;
787 [label="entropy = 0.0\nsamples = 1\nvalue = [0, 1]"] ;
785 -> 787 ;
788 [label="X[408] <= 2119.0\nentropy = 0.92\nsamples = 778\nvalue = [517, 261]"] ;
780 -> 788 ;
789 [label="X[9] <= 1975.5\nentropy = 0.912\nsamples = 767\nvalue = [516, 251]"] ;
788 -> 789 ;
790 [label="entropy = 0.904\nsamples = 755\nvalue = [514, 241]"] ;
789 -> 790 ;
791 [label="entropy = 0.65\nsamples = 12\nvalue = [2, 10]"] ;
789 -> 791 ;
792 [label="X[214] <= 0.5\nentropy = 0.439\nsamples = 11\nvalue = [1, 10]"] ;
788 -> 792 ;
793 [label="entropy = 0.0\nsamples = 10\nvalue = [0, 10]"] ;
792 -> 793 ;
794 [label="entropy = 0.0\nsamples = 1\nvalue = [1, 0]"] ;
792 -> 794 ;
795 [label="X[199] <= 9500.0\nentropy = 0.988\nsamples = 122\nvalue = [53, 69]"] ;
779 -> 795 ;
796 [label="X[250] <= 0.5\nentropy = 0.996\nsamples = 114\nvalue = [53, 61]"] ;
795 -> 796 ;
797 [label="X[282] <= 0.5\nentropy = 0.999\nsamples = 109\nvalue = [53, 56]"] ;
796 -> 797 ;
798 [label="entropy = 0.999\nsamples = 100\nvalue = [52, 48]"] ;
797 -> 798 ;
799 [label="entropy = 0.503\nsamples = 9\nvalue = [1, 8]"] ;
797 -> 799 ;
800 [label="entropy = 0.0\nsamples = 5\nvalue = [0, 5]"] ;
796 -> 800 ;
801 [label="entropy = 0.0\nsamples = 8\nvalue = [0, 8]"] ;
795 -> 801 ;
802 [label="X[8] <= 14682.0\nentropy = 0.916\nsamples = 356\nvalue = [118, 238]"] ;
700 -> 802 ;
803 [label="X[8] <= 14214.0\nentropy = 0.998\nsamples = 212\nvalue = [101, 111]"] ;
802 -> 803 ;
804 [label="X[8] <= 10041.0\nentropy = 0.992\nsamples = 201\nvalue = [90, 111]"] ;
803 -> 804 ;
805 [label="X[404] <= 0.5\nentropy = 0.997\nsamples = 156\nvalue = [83, 73]"] ;
804 -> 805 ;
806 [label="X[278] <= 0.5\nentropy = 0.985\nsamples = 126\nvalue = [54, 72]"] ;
805 -> 806 ;
807 [label="X[331] <= 0.5\nentropy = 0.968\nsamples = 119\nvalue = [47, 72]"] ;
806 -> 807 ;
808 [label="entropy = 0.946\nsamples = 110\nvalue = [40, 70]"] ;
807 -> 808 ;
809 [label="entropy = 0.764\nsamples = 9\nvalue = [7, 2]"] ;
807 -> 809 ;
810 [label="entropy = 0.0\nsamples = 7\nvalue = [7, 0]"] ;
806 -> 810 ;
811 [label="X[231] <= 0.5\nentropy = 0.211\nsamples = 30\nvalue = [29, 1]"] ;
805 -> 811 ;
812 [label="entropy = 0.0\nsamples = 29\nvalue = [29, 0]"] ;
811 -> 812 ;
813 [label="entropy = 0.0\nsamples = 1\nvalue = [0, 1]"] ;
811 -> 813 ;
814 [label="X[0] <= 66.0\nentropy = 0.624\nsamples = 45\nvalue = [7, 38]"] ;
804 -> 814 ;
815 [label="X[253] <= 0.5\nentropy = 0.297\nsamples = 38\nvalue = [2, 36]"] ;
814 -> 815 ;
816 [label="X[201] <= 0.5\nentropy = 0.179\nsamples = 37\nvalue = [1, 36]"] ;
815 -> 816 ;
817 [label="entropy = 0.0\nsamples = 35\nvalue = [0, 35]"] ;
816 -> 817 ;
818 [label="entropy = 1.0\nsamples = 2\nvalue = [1, 1]"] ;
816 -> 818 ;
819 [label="entropy = 0.0\nsamples = 1\nvalue = [1, 0]"] ;
815 -> 819 ;
820 [label="X[1] <= 6.0\nentropy = 0.863\nsamples = 7\nvalue = [5, 2]"] ;
814 -> 820 ;
821 [label="entropy = 0.0\nsamples = 2\nvalue = [0, 2]"] ;
820 -> 821 ;
822 [label="entropy = 0.0\nsamples = 5\nvalue = [5, 0]"] ;
820 -> 822 ;
823 [label="entropy = 0.0\nsamples = 11\nvalue = [11, 0]"] ;
803 -> 823 ;
824 [label="X[408] <= 385.0\nentropy = 0.524\nsamples = 144\nvalue = [17, 127]"] ;
802 -> 824 ;
825 [label="X[328] <= 0.5\nentropy = 0.453\nsamples = 137\nvalue = [13, 124]"] ;
824 -> 825 ;
826 [label="X[206] <= 0.5\nentropy = 0.407\nsamples = 135\nvalue = [11, 124]"] ;
825 -> 826 ;
827 [label="X[47] <= 0.5\nentropy = 0.383\nsamples = 134\nvalue = [10, 124]"] ;
826 -> 827 ;
828 [label="X[334] <= 0.5\nentropy = 0.357\nsamples = 133\nvalue = [9, 124]"] ;
827 -> 828 ;
829 [label="entropy = 0.33\nsamples = 132\nvalue = [8, 124]"] ;
828 -> 829 ;
830 [label="entropy = 0.0\nsamples = 1\nvalue = [1, 0]"] ;
828 -> 830 ;
831 [label="entropy = 0.0\nsamples = 1\nvalue = [1, 0]"] ;
827 -> 831 ;
832 [label="entropy = 0.0\nsamples = 1\nvalue = [1, 0]"] ;
826 -> 832 ;
833 [label="entropy = 0.0\nsamples = 2\nvalue = [2, 0]"] ;
825 -> 833 ;
834 [label="X[1] <= 33.5\nentropy = 0.985\nsamples = 7\nvalue = [4, 3]"] ;
824 -> 834 ;
835 [label="X[322] <= 0.5\nentropy = 0.811\nsamples = 4\nvalue = [1, 3]"] ;
834 -> 835 ;
836 [label="entropy = 0.0\nsamples = 3\nvalue = [0, 3]"] ;
835 -> 836 ;
837 [label="entropy = 0.0\nsamples = 1\nvalue = [1, 0]"] ;
835 -> 837 ;
838 [label="entropy = 0.0\nsamples = 3\nvalue = [3, 0]"] ;
834 -> 838 ;
}